-0.119175,-0.269864,-0.352335,-0.440713,-0.469459,-0.230391,-0.253964,-0.443344,-0.406247,-0.513464,-0.476358,-0.179761,-0.234278,-0.172754,0.104489,0.175957,0.355262,0.222270,0.053601,0.204149,0.344950,0.625341,0.786531,0.355592,0.141188,0.319063,0.386473,0.691673,0.782649,0.299575,-0.011901,0.115640,0.199923,0.315039,0.358279,0.115622,0.127340,0.127561,-0.016004,-0.033877,0.058145,0.075796,0.194565,0.129529,-0.309088,-0.293600,0.080247,0.129794,0.077301,-0.041917,-0.544812,-0.527982,0.060867,0.163255,-0.136619,-0.275801,-0.297762,-0.227678,0.160484,0.229582,-0.135027,-0.265758,-0.057834,0.057768,0.152527,0.167657,0.011669,-0.033843,-0.011799,0.017188,0.030807,0.047332,-0.109527,-0.136099,-0.192153,-0.155042,0.074279,0.063739,-0.082835,-0.087960,-0.182240,-0.227741,-0.125130,-0.074503,0.124739,0.235223,0.071551,-0.233027,-0.354281,-0.160186,0.098255,0.241847,0.120565,-0.263431,-0.261731,-0.021327,0.027320,0.039200,0.059319,0.007027,0.056334,0.096746,0.027112,-0.015563,0.000392,0.110131,0.163193,0.096128,0.011757,0.002519,-0.004701,0.013874,0.018366,0.009029,0.004699,-0.018192,-0.014653,0.017196,0.015884,0.006926,-0.003290,-0.029948,-0.028528,-0.004451,-0.006077,-0.003496,0.009444,0.009916,-0.010445,-0.029796,-0.029889,-0.011011,0.016418,0.010708,-0.013770,-0.025418,-0.042117,-0.024759,0.010742,-0.008445,-0.021900,-0.003395,-0.015824,-0.015142,0.014444,0.004148,-0.009511,-0.006173,-0.016480,-0.009523,-0.000180,-0.023500,-0.022772,-0.002072,-0.012902,-0.010283,-0.007775,-0.025965,-0.026986,-0.017821,-0.015420,-0.006395,0.015992,0.006369,-0.003673,-0.021339,-0.020393,0.006894,0.006612,-0.010751,0.006629,0.001842,-0.017695,0.004456,-0.002531,-0.015439,-0.003423,0.001258,-0.016300,-0.008073,0.012984,0.008671,-0.011724,0.007196,0.014295,-0.000311,0.000854,-0.017811,-0.034938,0.014196,0.022195,-0.008275,-0.012284,-0.026702,-0.030616,-0.004126,-0.012032,-0.024104,-0.000335,-0.005737,0.003600,0.022647,0.008652,-0.004993,-0.010178,-0.003486,0.024683,0.039157,0.033262,0.012096,-0.009997,0.002031,0.013681,0.005384,0.004679,0.000948,0.248314,0.298929,-0.019535,-0.182834,0.013950,0.126636,0.481796,0.689157,-0.161390,-0.683661,-0.354518,-0.039607,0.634456,1.172661,0.420013,-0.402259,-0.581576,-0.297508,0.396147,1.103556,1.113088,0.416485,-0.008316,-0.019121,-0.171486,0.321959,0.897611,0.676042,0.616670,0.344794,-0.166658,0.000837,0.346392,0.358125,0.411878,0.232650,-0.629248,-0.855841,-0.222612,-0.113863,-0.413186,-0.295342,-0.722012,-1.321142,-1.099697,-0.684224,-0.478042,-0.294385,-0.260947,-0.932197,-1.484889,-1.043312,-0.340859,-0.111185,-0.080539,-0.248245,-0.443305,-0.416285,-0.113529,0.027157,0.205236,0.835527,0.901065,0.804663,1.015871,0.481982,0.117592,0.616876,0.736566,0.747997,0.853397,0.342682,-0.043432,0.040577,-0.146666,-0.358468,-0.088435,0.039357,0.091983,0.236949,-0.040852,-0.389001,-0.063686,0.139496,0.056216,0.220838,0.147554,-0.129796,0.219175,0.331902,-0.259425,-0.244035,-0.021906,-0.184151,0.359322,0.506179,-0.377159,-0.629674,-0.109651,0.211153,0.589695,0.521406,-0.196933,-0.361173,-0.046006,0.296041,0.424798,0.246990,0.003574,0.012031,0.010102,0.004899,0.002289,-0.000965,0.005261,0.018149,0.012608,0.005948,-0.000151,-0.006379,-0.004037,0.006516,0.002050,-0.006199,-0.008639,-0.010942,-0.008220,-0.004343,-0.011124,-0.014255,-0.007501,-0.008247,-0.002489,-0.004011,-0.008718,-0.012431,-0.008615,-0.003381,0.000007,0.000730,0.001950,-0.005424,-0.007313,-0.000662,0.004184,-0.000014,-0.000475,0.004766,-0.002027,-0.003070,0.001156,-0.009775,-0.010008,0.009511,0.000359,-0.008229,0.002779,0.000084,0.003558,0.014705,0.000365,-0.008087,0.009296,0.017042,0.019678,0.014337,-0.006628,-0.009032,-0.000472,0.000139,0.010855,0.011413,-0.005818,-0.006987,-0.003960,-0.007057,0.004268,0.007037,-0.001211,-0.000883,-0.003475,-0.002291,-0.004230,-0.000450,0.012455,0.007491,0.003551,0.001463,-0.015131,-0.007850,0.011481,0.006287,0.002682,-0.006474,-0.016887,-0.007936,0.000856,0.001062,-0.000537,-0.006509,-0.001021,0.004216,-0.006330,-0.005595,-0.001583,0.002613,0.006601,-0.006153,-0.013599,-0.005040,-0.005389,-0.001106,0.001637,-0.010906,-0.005438,0.002821,-0.004921,-0.011418,-0.008421,-0.009494,0.001188,0.008758,0.000208,-0.008915,-0.011362,-0.006182,0.010186,0.014129,-0.004423,-0.007169,0.003498,0.002374,0.003480,0.007350,-0.015681,-0.011743,0.011537,-0.004954,-0.004724,0.007829,-0.004624,0.002477,0.008089,0.004635,0.006677,0.003030,0.001505,0.004549,0.002991,0.008651,0.005883,-0.002820,0.005653,0.008292,-0.003101,-0.003110,0.005838,0.003208,0.004014,0.005499,-0.001089,0.001661,0.008086,0.003851,0.001586,-0.001360,-0.006491,-0.000474,-0.004632,-0.007702,0.000362,0.000149,0.001302,0.000773,-0.012913,-0.012170,0.002329,-0.003093,0.005664,0.009345,-0.011263,-0.009521,0.005192,-0.001809,-0.004140,0.003327,-0.005230,-0.005696,-0.002052,-0.007917,-0.002937,0.010682,0.008242,0.000488,-0.004828,-0.001884,0.005944,0.002464,0.001006,0.001542,-0.011651,-0.003228,0.009949,-0.011162,-0.010135,0.002553,-0.016739,-0.014031,0.002821,-0.009086,-0.012699,-0.003500,-0.016027,-0.013349,0.003649,0.002871,0.002999,0.001100,-0.008162,-0.008580,0.001896,0.009013,0.012799,0.006099,-0.005085,0.023914,0.005558,-0.038575,-0.006056,0.009079,0.017983,0.073536,-0.001217,-0.121727,-0.094852,-0.029895,0.021744,0.044318,-0.011757,-0.096036,-0.131891,-0.070186,-0.011732,0.007286,0.054120,-0.003173,-0.061812,-0.023538,0.019439,0.025598,0.066846,0.004529,-0.064903,-0.008745,0.029847,0.013008,0.007744,-0.005182,-0.046185,-0.016420,0.021655,-0.003871,-0.026384,-0.032903,-0.057753,-0.025708,0.025846,0.014893,-0.028050,-0.058160,-0.057806,-0.016742,-0.009114,0.034267,0.033836,-0.027403,-0.022669,-0.004811,-0.038026,-0.029619,-0.011868,-0.037883,-0.000689,0.016920,-0.018122,-0.026277,-0.000268,-0.017263,0.031194,0.056343,0.006598,0.018845,0.047101,0.018475,0.009267,0.025646,0.012200,-0.009355,-0.046975,-0.022455,-0.015467,-0.018431,-0.021928,-0.068559,-0.058883,0.003946,-0.000454,-0.016652,-0.058946,-0.072539,-0.010644,0.051289,0.030250,-0.018090,-0.002660,-0.001656,0.023593,0.067972,0.036709,-0.008674,0.037807,0.039577,0.059927,0.059923,0.001969,0.000203,0.015649,0.027897,0.037598,0.016839,-0.019503,-0.010993,-0.344675,-0.419867,0.039929,0.205042,0.514690,0.424768,-0.580301,-0.895340,-0.277467,0.431623,1.358590,0.964538,-0.660484,-1.083717,-0.408284,0.591430,1.427055,0.850574,-1.042210,-1.445475,-0.569135,0.213152,0.678353,0.299331,-0.837001,-1.399894,-1.250748,-0.569853,-0.232164,-0.350165,-0.219648,-0.562662,-0.772501,-0.418156,-0.327362,-0.338692,-0.373676,-0.560330,0.039502,0.354859,0.219948,0.091245,-0.791166,-1.026285,0.197603,0.458234,-0.430634,-0.456147,-0.751979,-0.930130,-0.141342,-0.225458,-1.160836,-0.898570,-0.268754,-0.556748,-0.720357,-0.877054,-1.278369,-0.833678,0.072846,0.101899,0.062993,-0.335625,-1.305197,-0.935631,0.007111,0.194472,0.483907,0.212595,-0.537082,-0.453131,-0.057112,0.008420,0.009834,0.297549,0.628760,0.275513,-0.028733,0.179754,0.279553,0.819850,0.923495,0.174713,-0.108728,-0.123570,0.472282,0.780571,0.029160,-0.264286,-0.334449,-0.685090,0.246598,0.594266,-0.336664,-0.333692,-0.591028,-1.100029,-0.149618,0.681959,-0.029159,-0.351735,-0.393686,-0.709843,-0.193653,0.345964,0.041931,-0.181529,0.021374,0.541433,0.994604,0.389247,-0.424370,-0.339072,-0.070093,0.999036,1.783808,0.536169,-0.578909,-0.400399,-0.110793,0.761593,1.067150,0.103492,-0.006869,0.084403,-0.051720,0.589831,0.791164,-0.160824,-0.297048,0.013388,-0.053029,0.472712,0.706256,-0.552161,-1.129878,-0.397200,-0.020634,0.186871,0.193039,-0.434768,-0.685160,-0.264858,0.318608,0.549345,0.472347,0.138518,0.165054,0.268147,0.977285,1.514030,1.123813,0.683755,0.660915,0.564229,1.253143,1.595960,0.668349,0.254657,0.078770,0.149644,0.476918,0.653040,-0.042078,-0.780175,-1.060835,-0.498859,0.863481,1.146695,0.646924,0.189330,-0.524352,-0.349970,0.981029,1.124930,0.705885,0.678926,0.119392,0.002450,-0.315449,-0.268504,0.057229,0.359612,0.502708,0.153380,-0.754154,-0.930543,-0.276223,0.697351,1.494332,0.697147,0.153081,0.119479,0.132254,1.062225,1.454579,0.558210,1.755962,2.722515,1.399808,1.135038,1.323985,0.622202,2.049958,3.557758,2.077899,1.698511,2.499206,1.370793,0.885781,1.616760,1.143796,1.287960,1.638176,0.763034,-0.350653,-1.628779,-0.943340,1.010633,1.744594,1.068747,-0.471662,-2.914035,-1.872394,1.841628,2.885257,1.613607,0.165817,-2.193739,-2.416673,0.138961,0.457163,0.261086,0.815699,-1.063623,-2.707148,-2.491666,-2.952336,-1.288497,1.351820,-0.139140,-2.889090,-4.059650,-4.155717,-1.494196,0.822948,0.016000,-1.669560,-2.260019,-1.886880,-0.489473,-0.485769,-0.974820,-0.866773,0.149061,1.236664,0.709882,-0.552847,-1.778171,-2.286022,0.012826,2.136225,1.062701,0.016341,-1.262035,-2.826329,-0.449041,1.586557,0.487645,0.577314,0.174845,-1.508795,0.032660,1.898014,0.759028,0.814733,1.495620,0.304053,0.155266,1.081166,0.549066,0.320837,0.862091,0.405769,-0.190200,-0.129851,-0.075136,-0.333164,-0.491182,-0.255372,-0.618810,-0.759412,-0.237956,-0.169187,-0.263627,-0.395753,-0.988594,-0.750806,-0.063525,0.099084,-0.232488,-0.177912,0.000878,-0.452318,-0.299536,0.292089,-0.424999,-0.052117,1.149252,0.641208,0.156925,0.344911,-0.513192,-0.027020,1.313766,1.216908,0.734225,-0.012070,-0.548236,-0.012435,0.535176,0.114777,0.103333,0.085043,0.236068,-0.653613,-1.141790,-0.879926,-0.542774,0.787479,0.536510,-1.250912,-1.054837,-0.544827,-0.489933,0.883531,0.381850,-0.680928,0.556037,0.878326,0.143043,0.180288,-0.592874,-1.171712,0.302680,0.483118,-0.218111,-0.243428,-1.264170,-1.285594,0.074803,0.346042,0.006386,-0.242621,-0.589887,-0.197511,0.241208,0.406151,0.314698,-0.710953,0.336710,2.702497,2.144916,-0.302945,-0.793026,-0.729857,1.848896,4.601112,1.764163,-1.063929,-0.805734,0.464912,2.605677,1.849155,-1.162500,-0.388994,0.481895,0.894142,2.345327,-0.704076,-2.788058,0.028620,0.661417,0.487420,0.805189,-2.350102,-3.329224,-0.607374,0.053978,0.077095,-0.446647,-1.695486,-1.322913,-0.264003,-0.112835,0.107249,1.292883,2.754371,1.995901,0.115777,-0.311386,-0.167331,1.550726,4.144617,2.323066,-0.448663,-0.345170,0.311257,1.786243,2.471315,-0.133038,-0.696674,0.432693,0.900197,1.514709,0.466791,-0.790873,-0.116930,0.526222,0.614954,-0.228864,-1.709525,-1.007938,-0.337712,-0.195481,0.300595,-0.215174,-1.095248,-0.677268,-0.353015,-0.255227,0.887181,0.595094,-0.627069,-0.118932,0.884947,0.668898,1.003158,0.415438,-0.564505,-0.010275,1.468942,1.502432,0.383589,-0.570476,-0.402510,0.297028,0.937127,1.191655,0.476161,-0.524719,-0.711298,0.256407,-0.099824,-0.066650,-0.194592,-0.303414,-0.026628,-0.106984,-0.632249,-0.443071,-0.403140,-0.169515,0.219597,-0.175021,-0.179293,-0.018301,-0.349364,-1.051229,-0.154882,1.328614,0.741284,-0.040347,-1.114763,-2.379847,0.151652,2.452396,0.486136,-0.549524,-1.269378,-2.829554,-0.367496,1.817678,0.482825,-0.142173,-0.396145,-2.248146,-2.154174,-0.082819,0.949331,0.729977,0.295924,-0.528589,-1.707333,-0.612339,1.070823,0.800342,0.188090,0.218621,-0.227189,0.164376,0.859465,0.437369,0.410525,1.138474,-0.634129,-1.391573,0.510555,0.540049,0.007377,0.417811,-1.595819,-1.970121,0.362269,0.326137,-0.550936,-2.459242,-3.408433,-0.984777,0.624584,0.109234,0.270427,-1.983428,-3.034396,0.441599,1.677933,0.455793,0.787907,-0.791640,-2.685456,-0.023416,1.274328,0.191835,0.369691,-0.546791,-2.097803,-0.871244,0.369265,0.059188,0.633230,1.287995,0.592044,0.284355,0.707968,0.360892,0.611253,0.972821,0.641066,-0.016773,-0.125059,0.171212,-0.138844,-1.372255,-1.408501,-0.810290,-0.429806,0.205394,0.051683,-1.625073,-1.885556,0.158823,0.929975,0.562352,-0.156986,-2.134782,-1.792930,0.450846,0.920813,0.654834,-0.325536,-1.566790,-1.364897,-0.217139,0.394059,0.487556,0.711712,0.721604,-0.256259,-1.182755,-0.798077,0.118527,0.283418,-1.082162,-2.844857,-4.787805,-2.180561,1.127967,-0.409520,-1.425055,-2.656001,-5.647409,-2.717357,1.289586,-0.305200,-0.791905,-1.752022,-3.615234,-3.035262,-0.685345,-0.061014,-0.437595,-0.547566,-0.838417,-1.764238,-1.096806,0.262959,0.733022,1.137055,0.734458,-0.063849,-0.131316,0.155705,0.684147,1.220925,0.280079,0.326457,0.738861,-0.817482,-0.208987,1.638461,0.185210,-0.071477,0.773279,-0.567126,0.199048,1.303917,-0.835419,-0.776422,0.596741,0.632998,0.650024,-0.511596,-2.621714,-1.309110,0.783983,0.936495,0.000274,-1.408787,-1.948178,-0.833011,0.642602,0.709558,0.442433,-0.010809,-0.067014,0.097611,0.420942,-0.294043,-0.275938,-0.839532,-1.702518,-0.547623,0.297258,0.129303,0.064543,-1.574355,-2.616899,-0.312490,0.794815,0.968340,1.737203,0.388421,-0.831008,0.657200,1.107766,1.104332,2.780309,2.839471,1.439568,1.804852,1.528779,0.638538,0.760621,0.482911,-0.083138,-0.025892,0.418074,0.079200,-0.622966,-1.233317,-1.439333,-1.408677,-0.500495,0.221208,-0.366036,-0.858123,-1.127675,-0.079523,0.777274,0.210919,-0.929207,-2.079753,-1.947770,-0.000253,1.007891,0.622191,0.667228,-0.094544,0.154880,0.493939,0.199476,1.507926,3.096812,2.981147,2.421333,1.332771,0.303699,0.487695,1.761839,1.952785,1.062541,0.222162,-0.161737,-0.387751,-0.104574,0.098724,-0.383817,-0.695939,-0.496576,-0.309285,-0.807330,-0.749835,-0.433873,-0.177465,0.004618,0.020425,-1.114252,-2.286062,-0.884090,0.351327,0.084033,0.554221,1.432251,0.774515,0.509827,0.095767,-0.517575,-0.251854,3.543003,6.911232,5.326155,3.752393,1.542612,-0.367912,2.421429,7.119041,7.976463,6.517227,2.870465,0.108453,0.617599,2.518551,3.610353,2.331810,0.730862,-0.252906,-0.698725,-0.239671,0.386183,-0.635391,-0.815425,-1.380547,-1.472400,-0.413945,-0.142052,-0.581069,-0.761109,-0.328741,0.516881,0.904857,-0.567340,-1.333191,-0.706616,3.114878,3.380494,1.083449,0.330242,-1.859921,-1.372330,3.931405,4.546868,1.038380,-0.342072,-1.545441,-0.780452,1.615427,2.456930,1.034062,-0.711419,-1.073033,-0.169054,0.737871,1.323268,2.092396,3.085663,2.434228,0.855564,1.622831,4.003115,5.413093,4.433212,2.955417,1.555015,0.895923,2.709910,3.818064,1.612365,-0.110354,0.281357,-0.768514,-3.018861,-4.196234,-3.632043,-2.272878,-0.586723,-1.886319,-5.291583,-7.961487,-7.966731,-4.569811,-1.159304,-1.106842,-2.242659,-3.267885,-4.069871,-2.928477,-0.990675,-0.292124,-1.291329,-1.082620,0.145154,0.240060,0.011490,-0.414849,-1.628531,-1.328510,-0.099838,-0.317890,-0.332879,0.375127,-0.202416,-0.692664,-0.592670,-0.585466,-0.107916,0.436775,0.262376,-0.683179,-1.285691,-0.590755,0.186156,-0.364249,-0.687942,-0.733015,-0.900515,-0.396493,0.094700,-0.303172,-0.815532,-0.496609,0.037499,0.166745,0.144997,0.054177,0.526459,0.888695,-0.666494,-1.187109,-0.104201,0.632052,2.024891,1.683267,-1.294453,-1.277552,0.307328,0.537882,0.997243,0.040186,-0.705131,0.312443,0.598399,-0.040522,0.109312,-0.123300,-0.346623,0.101299,0.174788,0.615107,0.556630,-1.196801,-1.723435,-0.266712,0.318399,0.615635,-0.053872,-1.827887,-1.453984,0.034876,0.330480,1.058089,1.035232,-0.010302,-0.271507,-0.890416,-0.606353,1.130474,0.840498,0.035485,0.145999,-0.677382,-0.497920,0.714715,0.585191,-0.205171,-0.861969,0.052479,0.838802,0.513034,-0.192219,-1.831791,-1.940034,0.468985,1.282482,0.093032,-1.069767,-1.925481,-0.088883,0.324649,-0.349151,0.222328,-0.097623,-0.344648,0.571676,-0.304890,-0.901263,-0.569509,-1.428834,-0.624051,0.895413,1.098287,0.438149,-0.624124,-0.101918,1.709826,2.122800,1.216568,0.281388,1.192496,3.337754,3.021186,0.801902,-0.316063,-0.242038,1.702010,2.152063,0.803715,-0.216005,-1.028250,-0.458583,0.390665,-0.370374,-0.422205,-0.204403,-0.468021,0.075216,-0.064234,-0.511600,-0.538612,-0.413883,0.125885,0.448523,-0.383194,-1.009400,-0.861067,0.042838,-0.205673,-0.483373,-1.390055,-1.878023,-0.578835,-0.088967,-0.097351,-0.099250,-1.217668,-0.997291,0.720180,-0.114274,-0.320476,0.293601,-0.023786,0.099121,0.591728,-0.014079,-0.534081,-0.051181,0.672140,0.470696,-0.372439,-0.897673,-0.516880,0.209797,0.485119,0.242908,-0.526220,-0.866062,-0.411597,0.170456,0.429410,0.476450,0.117472,0.272584,-0.440022,-0.642174,0.408314,0.103333,-0.302986,0.351023,-0.878187,-1.227215,-0.535445,-2.172652,-2.496591,-0.772388,0.404040,0.317045,-1.610070,-4.739482,-5.138578,-2.322147,0.418045,0.731026,-2.380422,-4.328698,-3.264445,-1.089947,-0.347463,-0.573685,-1.284701,-1.388752,-0.202000,0.381373,0.076697,-0.402626,-0.969490,-0.891228,-0.814901,-1.672056,-2.763924,-1.985031,-0.595251,-0.258443,-0.439911,-1.666272,-3.530777,-2.641224,1.011070,1.361458,0.713728,0.918456,-0.057367,-0.612482,1.409295,2.083638,1.432495,2.411684,2.111562,0.458030,1.325199,1.999798,0.968719,0.617547,1.029009,0.705582,0.552736,0.644834,-0.125037,-0.881465,-0.373067,0.291263,-0.579637,-1.501218,-0.536054,1.621943,1.684048,0.447631,-0.030739,0.406226,1.620275,2.778938,2.826387,1.230759,0.398397,3.211008,3.859426,0.370425,-0.438738,0.237652,0.097300,2.439323,2.488575,-1.549186,-2.813889,-1.118150,-0.120388,0.956722,2.488708,1.213365,-0.901992,-0.703759,-0.368189,-0.179037,1.703230,1.975982,0.330820,-0.131085,-0.735416,-0.649957,0.325039,0.531483,0.838169,0.546266,-0.616030,-0.214920,0.637768,-0.128745,0.592490,0.957893,1.157884,2.566735,1.617704,-1.294270,-1.288195,0.214929,1.292912,2.767871,1.120968,-2.298670,-2.900543,-0.955864,0.790151,1.296788,0.686359,-0.228232,-1.439785,-1.031830,0.535737,0.660614,0.870367,1.436397,0.418242,-0.272665,0.107628,0.562559,0.705068,0.631735,-0.189613,-0.571211,0.092310,0.821232,0.916537,1.465671,1.334805,0.056750,0.090686,0.361934,0.621758,2.245485,3.446227,1.551253,0.333216,-0.451152,-0.253788,1.768273,2.642314,1.404621,0.018057,-1.036613,-0.739658,0.659990,1.148062,0.803084,-0.209155,-0.482200,-0.075582,0.303265,0.427557,0.321755,0.364501,0.763969,1.706912,1.763519,-0.186920,-0.642994,0.338108,0.540562,1.682207,1.504082,-1.559777,-1.584107,0.426159,0.400268,-0.284430,-1.844704,-3.395570,-1.809404,0.608727,1.190669,-0.147976,-2.402445,-2.381938,-0.709411,0.407441,1.275741,0.163650,-1.195437,-0.529638,-0.038850,0.251266,0.708747,0.051902,-0.378260,-0.170412,-0.197731,-0.570830,-0.448207,0.356723,0.129124,-0.223292,-0.118316,-0.231700,0.147664,0.019879,-1.658252,-2.210249,-0.911481,0.831699,1.697049,0.873353,-1.557853,-2.989474,-1.423618,0.945798,1.823006,1.911459,0.769499,-1.508075,-1.243322,-0.059580,0.398419,1.678832,2.507839,0.417047,-0.869959,-0.512809,-0.323409,0.977570,1.967863,0.922604,-0.257090,-0.033948,-0.181032,-0.229625,0.025960,-0.023937,-0.132438,-0.145238,-0.565773,-1.117986,-0.999228,-0.381680,-0.079902,-0.431314,-2.009867,-2.445129,-0.679525,0.312263,0.125212,-0.016457,-1.756288,-2.233542,0.217806,0.550857,-0.160660,0.196945,-0.484950,-0.909841,-0.463721,-0.280437,-0.044663,-0.106623,-0.353788,-0.233067,-0.335865,-0.161289,0.188673,-0.057583,0.345322,-0.157137,-1.126699,-0.717469,-0.150812,-0.897625,-1.472422,-2.159419,-2.915641,-1.417347,-0.086327,-0.576627,-1.906269,-2.630502,-2.257336,-0.157409,0.799066,0.436552,0.421414,0.073806,0.060179,0.844334,0.873099,-0.037887,0.783077,1.482891,1.063990,0.394046,-0.008017,-0.211025,0.273138,0.780865,0.535418,0.092181,-0.146535,-0.333737,-0.027797,0.265734,-0.889999,-1.389914,-0.540121,-0.904648,-0.819721,-0.249197,-1.590745,-1.838116,-0.581494,0.242317,0.615283,-0.129473,-1.269199,-0.920092,-0.153332,0.703490,1.404142,0.519929,-0.286809,-0.135502,-0.029416,-0.343037,-0.230152,-0.032539,0.073619,0.064421,-0.154622,-0.233297,-0.227087,-0.167012,-0.208025,-0.271968,-0.237166,-0.135307,-0.271696,-0.196399,-0.206588,-0.125682,0.020895,0.122831,0.268401,0.654954,0.518207,0.531539,0.522716,0.023642,0.453332,0.961312,0.342688,0.228767,0.417700,0.175470,1.158946,1.461788,0.403426,-0.035343,0.039542,0.702604,1.582563,1.478944,1.016754,-0.124986,-0.542754,0.292638,0.336853,0.127114,0.231220,-0.518097,-0.666417,0.200255,0.045030,-0.698380,-0.529363,0.460827,0.447035,0.574260,0.495577,-0.840053,-1.170195,-0.416766,-0.007941,0.690968,1.176046,0.814038,0.143416,-0.445758,-0.260214,-0.095736,0.076101,0.339912,0.752474,1.241762,0.657364,-0.458370,-0.754531,-1.079399,-0.503007,0.261551,-0.018681,-0.045670,-0.105133,-0.463600,-0.471232,-0.548377,-0.481283,-0.017645,0.348068,0.739252,0.883575,0.605049,0.095013,-0.054296,0.077174,0.882414,1.754822,0.986892,-0.016987,-0.024750,-0.067711,1.082099,2.343210,1.092766,-0.125384,-0.230912,-0.063236,0.757325,1.394012,0.593373,-0.210990,-0.373521,-1.227208,-2.044467,-1.683153,-1.342454,-0.850082,-0.130707,-0.960789,-1.862856,-1.605202,-1.224904,-0.652476,0.034403,0.236841,0.468489,0.537788,0.371149,0.099412,0.048752,-0.066341,0.443829,1.627087,1.493567,0.425401,0.126974,-0.201506,0.252223,2.056045,2.157890,0.682549,-0.077221,-0.279393,0.094400,1.390972,1.651019,0.556619,-0.295310,-1.066355,-1.600589,-0.727818,0.835035,0.733310,-0.105464,-0.685287,-1.418105,-1.152045,0.219487,0.533250