0.160890,0.056688,0.099549,0.596947,-0.166666,0.293856,0.605220,0.216563,0.395094,0.174597,0.537255,0.074676,0.087433,0.306035,-0.142141,0.379392,-0.026455,0.036760,0.385938,0.448158,0.004214,0.253767,0.079316,-0.005641,0.423843,0.269009,0.300001,0.298876,0.105286,0.448447,0.270485,0.021788,0.095625,0.106903,0.047771,0.541643,0.144060,0.242148,0.547804,0.118114,-0.122390,-0.501423,-1.110009,1.272582,-1.610692,0.352013,-0.297838,-1.738185,-0.531200,0.694517,-0.217277,-0.281745,-0.482843,-0.481225,-1.435742,-1.170414,0.642244,-0.419138,-1.817736,-1.093855,-1.346265,0.514372,0.861479,0.982058,0.804744,-0.538393,-0.385805,-1.214080,-0.241759,-1.072570,-1.436452,1.846625,0.582997,0.733392,0.431772,-0.547626,-0.328121,-0.221617,0.659417,1.368723,-0.008097,0.208743,0.045483,0.273760,-0.383504,0.215069,0.175016,0.069305,-0.008731,-0.327764,0.028522,0.022090,-0.041292,-0.172856,-0.292469,0.031112,0.099291,-0.249461,-0.140644,-0.071895,-0.191174,-0.379271,0.086777,0.031022,-0.128189,-0.106367,-0.052421,-0.158625,-0.094970,0.038568,-0.286844,-0.280063,-0.055023,0.158008,-0.272792,0.099317,-0.047982,0.161155,0.045059,-0.103542,1.360113,-1.030005,0.280328,0.248548,-0.842113,-2.201450,-1.473318,-1.196716,0.458926,-1.680067,0.190301,0.717655,-0.831119,0.783800,-0.966615,-1.105514,0.197180,1.597779,-0.812039,-1.031848,-0.371952,0.642563,-0.649646,-0.875406,0.011544,1.823188,1.001097,-0.238702,-1.515226,-1.355273,1.893764,0.661951,-0.308303,0.707664,1.129736,-0.252969,-1.562968,-0.495967,-0.425634,-0.882632,-0.259048,-0.475819,-0.031594,-0.343107,-0.178336,-0.441317,-0.139756,-0.135034,-0.131770,0.012908,-0.386258,-0.146632,-0.116979,-0.285290,-0.035418,-0.071419,0.140252,-0.551740,-0.157151,0.039331,-0.204981,-0.142662,-0.030266,0.158906,-0.208474,0.002288,0.352216,-0.020373,-0.123824,0.019891,0.093049,-0.138855,-0.229379,-0.143705,-0.312195,-0.493766,-0.130661,-0.554033,-0.405232,0.099294,-1.833907,0.431632,-1.319781,0.926526,-1.541073,1.657703,1.175376,-1.300497,-1.112468,-0.296999,-0.842370,-0.401548,-1.353585,-1.438979,-1.254056,-0.991547,-0.601363,-1.436922,0.733211,-1.163280,-0.967374,1.580933,0.561896,0.770839,-0.341607,3.037643,1.059465,-0.982064,0.137002,1.884192,-1.710298,0.325555,0.514997,-1.810280,0.164327,-1.844552,0.450695,-0.390184,-0.112580,-1.374448,-0.204448,0.134431,-0.090000,-0.104418,0.179186,0.122820,-0.019031,-0.228464,-0.200401,-0.026830,0.022795,0.093790,-0.043270,-0.010926,-0.088934,-0.016215,-0.013040,0.040928,-0.079656,0.024990,-0.125505,-0.273332,-0.165008,0.022449,-0.232705,0.041051,-0.000637,-0.101732,-0.372903,-0.212953,-0.460091,-0.014617,0.236279,-0.190906,0.185786,-0.084361,-0.195018,-0.007147,-0.260349,-0.026065,0.823276,-1.485476,-0.408883,0.315077,-0.753670,1.580530,0.680752,-1.264288,0.411672,0.313322,0.894816,0.901207,-0.465339,0.390505,-1.195903,-0.924060,0.316475,0.658738,-0.547929,-0.908691,-0.841601,-0.812770,0.112097,-2.634076,-0.067869,-1.323039,-1.151414,0.251339,-0.396988,0.586481,-1.151114,-0.464639,-1.196631,0.726956,-0.184059,1.782829,0.612155,-0.681293,0.087523,-0.940399,0.131821,0.266957,-0.051287,-0.087013,-0.248622,-0.053415,-0.367449,-0.020174,-0.046442,-0.112020,-0.243448,-0.087577,-0.107216,-0.177908,-0.044915,0.101372,-0.181779,-0.039491,-0.170598,0.174098,-0.211522,-0.287878,-0.028341,-0.228523,-0.195791,0.146435,-0.179477,-0.476623,0.032384,-0.136326,-0.359567,-0.143516,0.250341,0.108948,-0.055063,-0.160990,0.028189,-0.024312,-0.001266,0.017501,-1.218470,0.202430,-0.691297,0.156975,-1.471586,0.618459,-0.809075,-1.915217,-1.023964,0.122959,0.863913,-1.066710,0.935944,-1.015233,-1.575316,-0.769342,0.083758,2.238148,-1.006369,-1.255895,-0.524912,-0.520145,-0.302628,0.298378,-0.761097,-0.570301,-1.000316,0.688853,2.427284,-1.205995,2.368873,0.285367,0.653275,-0.472178,-1.758897,-0.776915,-0.553268,-0.311752,0.722381,0.962323,0.168523,-0.049041,0.003664,-0.087823,-0.320083,-0.423189,-0.169724,-0.145905,-0.341152,-0.363726,-0.256307,-0.245147,-0.069312,-0.195908,0.098673,-0.417162,-0.176252,0.272504,-0.255674,-0.007067,-0.307641,0.240298,-0.029338,-0.048994,-0.020088,-0.160342,-0.137236,-0.171714,0.381371,0.051215,0.182660,-0.264141,0.171121,0.109428,-0.238102,-0.243748,-0.084369,0.006262,-0.135964,-0.018618,-1.063734,0.981010,-0.273212,0.848674,-0.317420,-1.279992,0.789871,-0.052812,-1.266730,0.664720,-1.090453,0.489883,1.721368,0.999110,0.168570,-0.404876,-1.509797,-1.028870,-1.188765,0.275299,-0.322778,-1.676998,0.288654,2.829513,-0.722807,-1.349973,-1.892223,0.612344,-1.951914,-1.689160,-1.833117,0.804132,-0.071497,-0.735229,0.700750,-0.563840,0.869862,0.694691,-0.208873,-1.098460,-0.296367,-0.417337,-0.084188,0.042724,0.049890,-0.236394,0.060672,-0.205623,-0.270647,0.044387,-0.192623,-0.067604,-0.048027,-0.328385,-0.486848,-0.151968,0.055740,-0.651348,-0.110983,-0.330736,0.197377,-0.162071,0.060296,-0.021819,-0.234528,-0.468270,0.245249,0.185973,-0.222015,-0.132014,-0.161729,-0.161239,-0.347799,-0.351411,-0.315443,-0.202263,-0.160161,0.013875,-0.287861,-0.059422,0.092633,1.038679,-0.996125,-2.040417,-0.982681,0.684641,1.127702,-1.735160,0.297539,-0.681237,-0.881059,-0.927649,1.468744,0.611061,-1.468581,0.626273,0.945253,-2.317711,-0.140529,-1.003286,-1.046833,0.707119,1.218589,0.679570,-0.184228,-1.715258,0.865819,-1.584720,-2.615627,0.438505,0.421801,0.216700,0.209334,1.187175,-0.240182,0.771569,-2.523848,-0.096245,-1.980691,1.067103,0.212765,0.112068,0.049891,0.420012,-0.301541,0.241115,-0.198675,0.006615,-0.298502,-0.285076,0.079218,0.108744,0.098795,-0.280482,-0.506601,-0.239098,-0.094448,-0.118549,0.038934,-0.371747,0.030943,-0.351260,-0.155257,-0.161823,-0.307507,-0.408521,-0.144433,-0.100839,-0.493253,-0.320513,-0.427600,-0.203760,-0.159969,-0.340795,-0.002511,0.309125,-0.428249,0.165409,-0.240997,-0.130177,0.792948,0.312954,-0.635370,0.518883,-0.771822,-1.102686,-1.578958,-1.403900,1.750711,0.060041,-0.232152,-2.018309,-0.538454,-0.673485,-1.617269,-0.518110,0.084654,-2.207156,1.090661,-1.051523,1.745539,-0.152278,0.716181,-0.260862,0.810983,-1.374266,0.923047,1.105250,0.761470,0.778331,-2.041544,0.668172,-1.420262,-0.323659,0.221545,-0.910670,-0.234305,-1.394621,0.442631,0.336993