1.406548,1.989110,1.426277,1.739817,2.463235,1.567132,3.112487,4.729043,3.294373,2.927780,3.019155,1.769193,1.776536,2.905180,1.871796,0.374055,-1.841273,-1.472176,-0.936890,-1.708299,-2.024280,-2.910290,-4.603143,-2.945724,-2.379615,-4.314066,-4.108267,-2.855737,-1.387876,-0.705956,-1.372129,-2.440521,-2.080287,-0.759355,0.818073,0.565532,-0.959802,-1.498584,-0.848758,-0.675737,-1.009737,-0.643975,-1.567031,-2.564767,-2.029118,-2.453861,-3.766736,-2.344256,-0.788175,-1.474802,-1.737609,-2.611585,-4.370605,-2.810002,0.501652,0.748972,0.717692,0.548771,-0.720579,-0.798978,1.921382,3.424233,3.765771,4.399633,3.340893,1.204180,1.238784,2.266641,2.490829,3.017401,2.447866,0.893437,0.171143,-0.891369,-1.847571,0.042512,1.992005,1.164434,-0.670330,-2.142951,-2.371766,0.586335,3.205140,1.719660,-1.225242,-1.446106,-0.046459,0.947245,1.147498,0.374658,0.590490,1.110908,0.703209,-0.557177,-1.983804,-1.243835,3.288703,3.559286,-0.532908,-3.068929,-3.998752,-1.733313,2.314444,2.253855,-0.758381,-2.108330,-2.080585,-0.670047,2.384597,4.193247,2.059818,-1.059047,-2.048245,-0.738031,2.856518,5.713710,3.594413,-1.616496,-4.007530,-1.653813,0.433744,2.775812,3.181066,-1.334798,-3.786367,-1.612572,-0.664821,1.818336,3.024398,-2.113061,-3.937004,-1.282703,-1.245175,1.933543,4.540633,-1.781792,-5.341518,-2.197811,-0.618532,1.370556,3.162707,-0.446080,-3.231596,-1.611898,-1.294126,1.609890,2.125313,-3.160809,-1.800851,0.581256,-0.854928,4.470019,2.449043,-5.649186,-1.225961,1.547320,2.245045,5.261243,-2.496258,-6.191738,1.014258,1.693539,3.948168,5.324275,-4.356890,-5.298252,2.080762,1.646016,1.563971,0.344944,-4.977403,-1.152806,2.664699,0.059131,-0.578349,-2.578218,-3.440501,0.442084,1.023305,-0.859411,2.186992,1.160011,-3.562027,-1.540298,1.671667,0.676919,2.901478,-0.911011,-8.179873,-0.983581,4.408418,1.024616,1.984023,-3.757051,-8.490030,3.151164,6.362879,0.462759,1.181901,-4.138877,-5.718670,6.049962,5.385269,-1.062585,-1.306800,-3.749566,0.310046,7.389122,0.349704,-4.286606,-1.219164,-1.296718,2.156531,3.933607,-1.409436,-3.108958