0.026834,0.006330,-0.122172,-0.030770,-0.087950,-0.031186,0.035088,-0.020255,-0.044490,-0.099999,-0.008118,-0.004556,0.054627,-0.018936,0.131476,-0.086908,-0.029105,0.125859,0.019793,-0.037384,-0.080661,0.075828,-0.133414,0.026957,-0.006964,-0.064538,0.109773,0.095777,0.128143,-0.057899,0.110130,0.054555,0.112223,-0.007516,-0.082364,0.047062,-0.099492,-0.001170,0.109789,0.122252,0.022604,0.013293,-0.065601,0.081279,-0.079166,-0.076817,0.072022,0.065963,0.020420,-0.054131,-0.087475,0.091268,-0.083366,0.024813,0.016644,0.062830,0.088587,-0.121895,-0.035933,0.003715,0.030067,-0.147583,-0.110878,-0.163788,0.054493,-0.057151,-0.020363,-0.059052,-0.075238,0.090529,0.195585,0.040994,0.115484,-0.101491,-0.105059,-0.055534,-0.100705,0.043094,-0.078757,0.089562,0.107458,-0.006019,0.053047,0.098642,0.061799,-0.097073,0.052381,0.122054,0.034800,-0.064242,0.087478,-0.047772,-0.106373,0.057233,-0.005519,0.077858,0.075554,-0.115122,-0.022221,0.082785,-0.082548,0.048494,0.099494,-0.040158,-0.097929,-0.042678,0.064523,-0.034229,-0.013456,0.076484,-0.106963,0.039176,0.061218,-0.052674,0.081472,-0.081953,-0.090533,-0.112445,-0.038148,0.106930,-0.053223,-0.058031,0.118062,-0.109477,0.063889,0.074315,-0.118829,-0.103516,0.111036,0.042821,-0.048213,-0.066787,-0.047573,-0.051422,0.028155,-0.105062,0.001642,0.132271,0.011551,0.116294,-0.117298,0.080251,0.030592,-0.036545,0.072348,-0.069137,0.007709,-0.109971,0.056158,0.100616,0.061409,-0.023519,-0.029406,-0.002967,-0.036579,0.027249,0.021515,-0.103292,0.169829,0.058299,-0.065035,-0.068527,-0.034484,0.001478,0.007870,0.027788,-0.005817,-0.153903,0.012567,-0.100133,-0.002747,0.004562,-0.086065,-0.184130,-0.099300,-0.148155,0.061456,-0.188747,-0.247194,-0.006975,-0.287031,0.014276,0.221793,-0.054406,-0.128690,-0.160298,0.099344,0.294092,-0.059127,-0.200696,0.132420,0.078884,0.000155,0.139848,0.058309,-0.064526,-0.138559,0.200543,0.223184,-0.009311,-0.084708,0.000192,-0.018170,0.034232,0.011523,0.009768,-0.114457,-0.131568,-0.045872,-0.038705,0.026885,0.046288,0.055841,0.036625,-0.165475,-0.056390,-0.025352,0.020359,0.078387,0.058014,-0.061379,-0.029374,-0.016213,-0.000532,-0.088595,0.011694,0.034650,-0.052212,-0.056869,-0.110203,-0.109810,0.028941,-0.006507,-0.107333,0.090735,0.005263,0.059666,-0.122656,-0.100040,-0.078070,-0.020473,-0.112757,0.041882,-0.066361,0.073465,0.039206,-0.056601,0.060125,0.051473,0.095722,-0.064436,0.059679,-0.123228,-0.077474,0.216886,-0.136326,0.028038,-0.024423,-0.079011,-0.062177,0.008567,-0.067941,0.032997,-0.001753,0.038605,0.114377,0.067129,-0.049607,0.047781,-0.062254,-0.023580,0.113289,-0.006635,-0.140456,0.087132,-0.064524,0.048560,-0.101788,0.008853,-0.053833,0.004289,-0.111166,0.068373,0.005819,0.078086,0.067684,-0.052924,0.111085,0.090226,-0.105647,0.063474,-0.095376,-0.053505,0.087477,-0.080851,0.114049,-0.030073,0.041945,-0.064402,0.026241,0.112720,-0.080527,-0.063451,0.112834,-0.087824,-0.107782,0.003825,0.084315,0.034292,0.014605,0.052632,0.122735,-0.084634,-0.034041,0.086457,-0.094937,-0.081719,0.061375,-0.044369,-0.036020,-0.054930,0.077163,0.106095,0.031871,-0.041829,-0.081502,-0.063034,0.036637,-0.122318,-0.106671,0.029809,0.057939,0.093423,-0.019053,0.121741,0.039894,0.098690,-0.047706,-0.011270,-0.089951,-0.099412,-0.066656,-0.012925,0.078066,-0.046391,0.109275,0.060499,-0.028722,-0.067822,-0.060736,0.153287,-0.020662,-0.056721,0.051818,-0.072706,0.074661,0.026171,-0.111407,0.218655,0.179641,0.101185,0.059012,-0.009157,-0.093378,-0.043972,-0.144797,0.059525,0.021170,-0.024628,-0.249079,0.053804,-0.003576,-0.060102,-0.201884,-0.250724,-0.068156,0.104593,-0.113512,-0.072456,0.099052,-0.008796,0.097077,0.164205,-0.072499,-0.007171,-0.010366,0.347388,0.146770,-0.051627,0.129537,-0.208162,-0.024299,0.221655,0.289335,0.213490,-0.134451,0.064451,0.129822,0.332530,0.145471,-0.097218,0.105266,0.011998,0.015145,-0.041658,-0.126118,-0.024161,-0.008861,-0.062296,0.108897,-0.084024,0.069024,0.036310,0.006156,0.081254,-0.006901,0.028080,-0.007657,-0.088765,0.050045,-0.121549,0.067628,-0.119014,-0.086822,-0.008121,0.089960,-0.089087,-0.066568,-0.111864,-0.087493,-0.044700,0.056443,0.083465,0.010605,-0.023719,0.049208,-0.024292,-0.009917,0.056569,0.063070,-0.044932,0.085740,0.097531,-0.071323,-0.009972,-0.125398,-0.060878,-0.027415,-0.008451,-0.079530,0.054630,0.092858,-0.098822,-0.099733,0.012579,0.117976,-0.063695,-0.015830,0.055309,-0.022937,-0.007898,-0.102037,0.054082,-0.025687,-0.060210,-0.104037,-0.115679,-0.035678,0.091358,-0.002621,-0.016270,-0.039891,-0.007510,-0.040056,0.084778,0.031094,-0.108669,-0.111501,0.103541,0.074994,0.040260,-0.071508,-0.043981,-0.011599,-0.050981,-0.108372,0.101864,0.111332,-0.017962,0.008722,-0.045239,0.044294,0.009123,-0.013261,-0.029138,0.015210,-0.017505,0.095377,-0.082272,-0.050155,-0.098944,0.109142,0.075738,0.102714,-0.117788,-0.056589,-0.064254,-0.006257,0.085050,-0.032438,-0.086505,0.032387,-0.128381,-0.029840,-0.008480,0.094513,-0.036737,0.118379,-0.082505,-0.045535,0.111555,-0.016356,0.017112,-0.115370,-0.121579,0.044661,-0.084619,0.066163,-0.089920,-0.081587,-0.104885,-0.075961,-0.111077,0.069520,0.059440,0.100828,0.065416,0.014680,0.000308,-0.094389,0.059836,-0.117763,-0.056512,-0.035038,-0.069102,-0.002633,0.108116,0.049993,-0.102511,0.065152,0.043757,-0.019679,0.106576,-0.120024,0.010598,0.043693,0.021348,-0.058282,0.018911,0.102008,-0.085441,0.059654,-0.141541,-0.072491,-0.102234,0.081576,0.084490,-0.076263,-0.114075,0.032525,0.014499,0.027478,-0.049530,0.089804,0.035701,0.030937,0.041065,-0.080457,0.029929,-0.011516,-0.175467,-0.026788,0.005207,-0.057327,-0.105296,-0.116583,0.097359,-0.080415,0.021201,0.031200,-0.077534,-0.116116,-0.108115,0.075715,-0.034940,-0.033466,-0.136782,0.090374,0.009937,0.022946,-0.024219,0.041519,0.065049,0.005502,0.027854,0.084721,-0.092129,-0.071959,0.002726,0.041309,-0.063642,-0.006905,0.113408,0.122570,0.114674,-0.060298,0.140229,0.036015,0.125466,-0.045372,-0.015019,-0.093135,0.082664,-0.135764,-0.051993,-0.095022,0.015923,-0.001597,0.062292,-0.059176,-0.124233,0.120037,0.080677,0.011664,-0.019976,0.001299,0.080118,0.116499,0.057604,0.034647,0.055686,-0.011576,-0.069415,-0.008260,-0.090955,-0.100353,-0.122475,-0.060847,0.028319,-0.089153,-0.083678,0.043163,0.105088,0.013789,0.175709,-0.061218,-0.043879,-0.104234,-0.140597,0.110589,0.016576,0.185907,0.176761,-0.027110,0.129010,0.024728,-0.015561,0.062079,0.014537,0.037948,0.161934,0.023129,0.079530,-0.025232,-0.159906,-0.046165,0.031267,-0.077531,0.036963,0.014044,0.122772,0.058710,-0.063877,0.096779,-0.048825,0.058378,-0.056713,-0.108821,0.040357,-0.024102,0.027138,-0.004250,0.113105,-0.012103,0.105644,0.069655,-0.091430,0.014513,0.017109,0.102946,-0.075406,0.038567,-0.044767,-0.031498,0.041391,-0.065613,-0.000799,-0.110725,0.066304,-0.001354,0.027759,0.011912,0.019389,0.107316,0.095002,0.041683,-0.111753,-0.091658,-0.096918,0.026252,-0.063052,-0.057373,-0.095801,-0.083178,0.086046,0.110026,-0.015177,0.090316,-0.021693,0.017029,0.037377,-0.024688,0.063756,0.104445,-0.079479,-0.106973,-0.120783,0.036753,-0.045648,0.097738,0.088967,-0.070038,0.070072,-0.105573,-0.086783,-0.061761,0.057221,-0.091518,0.017918,-0.080537,0.128932,-0.024335,0.097219,-0.093419,-0.176834,-0.009632,0.044508,-0.007032,0.164469,-0.187661,0.126667,-0.155713,-0.051892,0.090401,0.004743,0.175864,0.054626,-0.033601,0.059670,0.070900,0.092281,0.064566,0.034037,-0.041766,0.040513,0.198887,0.214341,-0.296195,-0.396200,-0.013999,0.016483,0.181809,0.178238,-0.241037,-0.445220,-0.131967,0.332880,0.195358,-0.188348,-0.248860,-0.077019,-0.153133,-0.059513,-0.181849,-0.008517,-0.326189,-0.025994,0.079353,0.084341,-0.035678,0.105323,0.102818,0.091715,-0.087335,0.097594,0.078210,0.025680,-0.067769,-0.068663,0.094425,-0.101150,0.050686,-0.134683,0.052138,-0.140042,-0.143417,-0.124470,-0.121740,-0.154947,0.003511,-0.072107,0.047652,-0.017790,0.101746,0.166179,0.086369,0.108810,0.056471,0.079926,-0.076812,0.079476,-0.027455,-0.080119,0.065700,0.114063,-0.005113,-0.033053,-0.066507,0.053978,0.101538,-0.121392,0.007886,-0.054102,0.030495,0.092767,0.115288,-0.030639,0.004530,-0.068820,0.007893,0.146457,0.055813,0.036420,-0.166885,-0.200484,0.015636,0.030013,0.119040,0.110259,-0.093261,0.068397,0.011895,-0.124312,0.100909,-0.108439,-0.134366,-0.094396,0.057938,-0.080047,-0.114418,-0.096119,-0.111272,0.130238,0.025380,0.027898,0.080705,-0.083140,-0.115062,-0.023256,-0.109237,-0.095965,-0.111865,-0.040297,-0.106329,-0.037918,-0.014135,-0.083246,-0.013716,-0.052607,0.063617,-0.009681,-0.078179,0.047657,0.076790,0.004797,0.058971,0.065584,-0.085354,-0.065022,-0.104907,0.033679,0.009297,0.108932,0.028759,0.070513,-0.039562,0.086673,0.068984,0.120281,0.096614,0.024435,-0.068686,0.008260,-0.002697,-0.043328,-0.117390,0.049193,-0.037424,-0.054730,-0.103287,0.004544,0.111349,-0.034778,0.047817,0.068159,-0.081117,0.081156,0.072327,-0.030221,0.039307,-0.035192,-0.052188,-0.074109,-0.008740,0.006636,0.043338,0.073121,0.100045,-0.038632,-0.122612,0.060870,0.014877,-0.110324,0.087133,-0.070619,-0.061885,-0.102230,0.031100,-0.075174,0.064580,-0.025626,-0.096353,0.050764,-0.126456,-0.058015,0.074571,-0.113025,-0.053639,-0.039091,0.078124,-0.103612,0.087558,-0.049119,-0.017368,0.070532,-0.083979,-0.086369,0.169841,-0.077038,-0.045542,-0.169975,0.089600,0.072334,0.153183,0.131534,0.021789,-0.097600,0.255618,0.087203,0.091526,0.057993,0.217721,-0.120009,0.306949,0.051080,0.227304,0.103802,-0.121196,0.131963,0.214781,0.224974,0.092785,0.086407,0.130104,-0.183820,0.031457,0.037795,-0.177563,-0.180055,-0.033735,0.010305,-0.028518,-0.003136,0.041682,-0.027057,-0.028711,0.045778,-0.048172,-0.054174,-0.002564,-0.126763,0.092907,0.090244,-0.081299,-0.031714,0.065699,-0.007776,0.051131,-0.010927,-0.060505,-0.045127,-0.060034,0.085024,0.052609,0.026446,0.096289,0.065762,-0.077673,0.099841,0.025398,-0.004662,-0.064263,-0.067988,-0.071264,0.060498,-0.008553,-0.050672,-0.032893,-0.095805,0.020033,-0.038484,0.012314,-0.001718,0.025969,0.029964,0.110350,-0.022202,-0.073590,0.032914,-0.045831,0.068606,-0.175211,-0.098496,-0.167335,0.110243,-0.024961,-0.043286,-0.040637,-0.159113,-0.025255,0.099728,0.144514,-0.017107,0.118809,-0.134321,0.087041,0.112570,0.094622,-0.053050,0.026197,0.125556,0.030806,0.053919,-0.059062,-0.000788,0.092561,0.031643,0.054476,-0.065710,-0.068932,0.059742,-0.023486,-0.051723,-0.001619,0.035855,0.034191,0.052220,-0.049837,0.021538,-0.005536,-0.104296,-0.107634,0.045250,0.075102,0.103710,0.032117,0.010503,-0.005258,-0.050145,-0.044036,-0.096471,0.082517,-0.071932,0.008133,0.068484,0.082278,0.049775,-0.021917,0.067835,0.095252,0.065273,0.055940,0.010465,0.022910,-0.079799,-0.001318,0.032369,-0.080319,-0.040750,-0.038391,-0.079376,-0.091761,-0.060795,0.007343,-0.004563,-0.016501,0.036376,-0.022267,-0.107060,-0.032839,0.036661,-0.046915,0.044650,-0.052646,0.036611,-0.105546,0.051110,-0.027371,0.117715,0.064793,0.104371,0.037826,-0.105253,-0.023497,0.081445,0.111636,0.105643,-0.072575,-0.050814,-0.064194,0.094698,-0.092288,0.069617,-0.015898,-0.050450,0.055916,-0.012852,0.039265,0.233022,0.123426,-0.008498,-0.065532,0.050752,-0.122193,0.127027,-0.124393,-0.084405,-0.098705,-0.071992,0.027001,0.188918,0.024001,0.103978,-0.088419,-0.085103,0.288845,-0.065439,-0.239105,-0.192024,0.085347,0.272944,0.249471,-0.016825,-0.200097,-0.116138,0.114675,0.283927,0.142224,-0.111163,-0.093073,-0.107736,-0.013483,0.045509,0.022020,0.137531,-0.314293,-0.015430,-0.007399,0.184528,0.070847,-0.128577,-0.010606,-0.005143,0.115353,-0.035662,-0.070232,0.033030,-0.032417,-0.072284,-0.112684,-0.051976,-0.060330,-0.006215,-0.064453,0.124262,-0.015017,0.113889,0.094076,-0.121949,-0.129201,0.065456,0.009465,-0.040246,-0.010869,0.079178,-0.073196,0.045618,-0.072840,-0.044831,0.079176,-0.036597,0.092801,-0.112999,0.022459,0.121075,0.109241,0.122071,-0.018882,-0.016221,0.052244,0.107520,0.045812,0.097720,-0.096000,-0.098432,-0.122049,-0.046071,0.088587,-0.027957,-0.027451,-0.074261,0.019720,0.116268,0.076052,0.044803,0.012127,0.061133,0.113869,0.000906,0.005744,0.016049,0.148264,0.087020,-0.006519,-0.072049,-0.058743,-0.142652,0.013075,0.139778,0.178118,0.042033,0.092202,-0.023669,-0.063038,-0.019226,0.112564,0.000753,-0.089231,0.084734,0.019883,0.081156,0.012202,0.104712,0.030482,0.085621,-0.083755,-0.008240,-0.093574,-0.057362,-0.032118,0.083813,-0.075839,0.010983,-0.079712,-0.103939,0.042687,0.037029,0.014216,-0.121429,0.095430,-0.104328,0.012831,0.112627,0.081251,-0.064223,-0.084980,-0.077915,-0.055938,0.108067,-0.002716,-0.108842,0.096963,0.048405,-0.125968,-0.002599,0.100465,-0.081523,0.052066,0.008493,-0.080186,-0.016310,0.005571,-0.057835,-0.123821,0.050667,-0.105245,-0.039082,-0.036967,0.082746,0.042768,-0.054666,0.099513,-0.069008,-0.023613,0.089463,0.039176,0.093003,0.051125,-0.011299,0.082776,0.100905,-0.034307,0.057531,-0.090101,-0.035511,0.049232,0.112839,0.086956,0.119035,-0.105460,0.164401,-0.047266,0.080971,-0.155225,-0.201118,0.022346,0.044790,0.150379,0.113172,-0.067967,0.083961,-0.135881,0.074272,0.017686,0.009283,0.194946,-0.019227,-0.037555,0.121228,-0.031666,0.242714,-0.067738,-0.105096,0.158109,0.151629,0.107025,0.226146,-0.239477,-0.043317,-0.042214,0.031946,0.059495,0.043518,-0.190361,-0.122117,-0.100827,-0.063860,0.006519,-0.121742,-0.065373,-0.059628,-0.106475,-0.166330,-0.146424,-0.048993,-0.096392,0.104990,-0.114702,-0.321142,-0.009150,-0.104394,0.100753,-0.049020,0.069012,0.101932,-0.004012,0.099919,0.003196,-0.054924,0.029174,0.089606,-0.104434,0.049955,0.087672,-0.043489,0.091497,0.056166,0.119449,0.075033,-0.133123,0.010595,0.084683,0.025705,-0.112510,-0.025471,-0.103853,-0.007193,0.122078,0.077638,0.080620,-0.067187,0.076505,0.028965,-0.009357,-0.064498,-0.026524,0.055107,0.085752,0.004147,0.061748,0.011453,-0.030661,0.004580,-0.091868,0.101882,-0.000846,-0.049983,0.042454,-0.099181,0.075558,0.120760,-0.061499,0.051105,-0.161609,0.079812,-0.093182,0.135464,-0.128262,0.008389,0.012732,-0.014197,0.022056,-0.041405,0.004340,0.065939,-0.088639,0.050028,-0.066463,0.044656,-0.102500,-0.064380,0.017930,0.100394,-0.164263,0.011709,-0.024389,-0.054890,0.035824,0.113628,-0.003314,0.071188,0.113269,0.062582,0.060015,0.067674,0.008592,0.039196,-0.089973,0.076720,-0.106047,0.047041,-0.090854,0.009542,-0.116455,0.125054,0.110889,0.075964,-0.076656,0.023488,0.042726,0.041448,-0.119903,0.003651,0.114971,0.100806,-0.084318,-0.085081,-0.039775,0.063237,0.008908,0.090762,0.091985,0.110733,0.025080,-0.115798,-0.026888,-0.108817,-0.077673,0.125690,0.079056,-0.088580,0.117765,-0.067684,-0.051345,0.072011,-0.067166,-0.053798,-0.108467,-0.024134,0.083694,0.045690,-0.123810,-0.073686,-0.049273,0.025246,0.027336,0.027440,-0.068394,0.064280,-0.090653,-0.073936,0.042895,-0.038168,-0.128670,0.046050,0.057144,0.030814,0.082051,-0.049725,0.088477,0.117320,0.106891,-0.008398,-0.025226,0.136407,0.072339,0.138896,0.105856,0.036111,-0.067663,-0.084799,-0.086979,-0.063118,0.005592,0.005421,0.052541,0.046852,-0.034001,0.115283,-0.129649,0.129982,0.055330,-0.085064,0.039251,0.043332,0.113529,0.001566,0.026269,-0.122443,-0.128522,-0.048050,-0.155578,-0.009314,-0.076362,-0.178332,-0.015592,0.069220,0.170849,-0.037343,-0.114653,-0.084123,-0.044098,0.034753,0.033578,0.115069,-0.063334,-0.059684,-0.088193,0.094211,0.042454,0.096567,-0.099883,0.151701,0.002799,-0.019513,0.028626,-0.074454,0.077295,-0.094429,-0.057101,-0.014446,-0.089009,-0.082734,0.040902,0.072852,-0.001347,0.144212,0.067037,0.057511,-0.026303,-0.040544,-0.067350,0.122578,0.020240,-0.022903,0.000601,-0.052665,0.031470,0.015752,0.082727,0.014245,-0.006184,0.075225,0.096843,-0.093585,-0.089980,-0.016545,0.086997,0.013519,-0.023116,-0.002277,-0.098741,-0.048581,-0.046949,-0.110586,0.095301,-0.056142,0.086837,-0.023204,0.092258,0.153778,0.123864,0.017102,-0.035148,0.029878,0.000600,0.049792,-0.067343,-0.008557,-0.003980,0.067967,0.034439,0.087616,0.033839,0.060156,-0.080284,0.008141,0.120523,0.016476,0.127521,0.033630,-0.018364,-0.014684,-0.017385,0.064159,0.082925,0.087610,0.080270,-0.022918,-0.069439,-0.072646,-0.065252,-0.048497,-0.059268,0.099775,0.038136,0.123504,0.083844,0.079946,-0.064270,-0.051989,-0.038159,0.099591,-0.103747,-0.094086,0.017131,-0.063561,-0.036752,0.122405,0.054035,-0.111096,0.000575,0.022911,-0.100493,0.032519,0.009176,-0.028461,-0.026687,-0.053823,0.107844,-0.021567,0.030272,0.118104,0.076239,0.087562,-0.044888,-0.017644,0.129581,-0.110627,0.062252,-0.026021,0.042553,-0.119270,-0.023948,-0.038705,0.049785,-0.095223,0.087806,0.048537,0.059110,-0.020667,-0.083294,-0.063114,-0.054709,0.130887,-0.113464,0.047014,-0.100092,0.050819,0.007180,0.000931,0.106366,0.018994,0.038615,0.117698,0.052742,0.123314,-0.006409,0.115840,0.052438,-0.026422,0.036052,-0.059908,-0.109996,-0.017353,0.048391,0.114964,0.069626,0.070413,-0.071697,0.019502,-0.104484,0.019287,0.085650,0.024522,0.061654,0.070564,-0.084704,0.009129,0.004073,0.094630,0.006531,-0.033478,0.088764,0.119061,0.060380,-0.044108,-0.124136,-0.046748,0.107110,-0.061578,-0.070533,-0.114845,0.079694,0.022157,-0.129466,-0.175885,0.159508,0.072243,0.074856,-0.053891,-0.103187,0.084862,-0.118131,0.153773,-0.098840,0.087749,-0.099139,0.081989,0.071969,-0.001972,0.096440,0.040149,0.113996,-0.096653,0.166878,0.017724,0.058003,0.037232,0.015585,-0.044714,-0.058115,-0.014982,-0.127187,0.019542,-0.042662,-0.116552,-0.115737,-0.102815,-0.075901,-0.082377,-0.040455,-0.100764,-0.085807,0.053619,0.077070,0.011231,-0.054559,-0.015696,0.045427,-0.061275,-0.108979,-0.003512,0.035614,-0.035023,-0.071338,-0.107682,-0.020437,0.084519,-0.068077,-0.007900,-0.018018,0.002853,0.054369,-0.119787,-0.070791,0.105436,0.068983,-0.063746,0.038178,0.142034,0.098013,-0.074297,-0.109814,0.032672,0.104263,0.143389,0.066258,0.015610,0.014265,0.051835,0.108198,-0.060636,0.018963,0.052152,0.016141,-0.221627,0.032687,0.077040,0.040710,-0.158558,0.070724,-0.103858,0.102910,0.009721,-0.091161,0.072330,0.012084,-0.112839,-0.070737,-0.026289,-0.097879,0.018873,-0.124824,0.084698,-0.130435,-0.054509,0.000066,0.104995,0.002925,0.108324,0.106041,-0.033132,-0.095688,-0.055511,-0.029332,0.083394,0.047756,0.077114,-0.015478,0.115761,0.071396,0.118823,0.090731,-0.127898,0.020883,0.082388,0.067152,0.050681,0.012821,-0.032135,0.030427,0.094004,0.032901,-0.065424,-0.073575,-0.017059,-0.127413,0.046790,0.038618,0.065220,0.021044,0.091578,-0.092618,0.096024,0.090046,-0.075573,-0.102061,0.016382,-0.027204,-0.033567,-0.027845,0.119201,-0.103679,-0.100215,0.070997,-0.097347,0.026107,0.070726,-0.047902,0.063425,-0.072647,-0.064672,-0.040921,-0.027739,0.072665,-0.044210,-0.029051,-0.026196,0.115200,-0.108501,0.098851,0.017654,-0.125011,-0.049263,-0.074430,-0.067807,-0.103487,-0.089959,-0.105686,0.056838,0.062048,0.021717,-0.082984,0.135608,0.081922,0.089751,-0.072994,-0.092987,0.164594,-0.091132,0.043614,0.146120,0.204471,0.112751,0.176820,0.065824,0.184137,0.096744,-0.014491,0.036622,0.131020,0.053842,0.072807,0.033362,-0.115059,-0.209636,0.044769,0.179599,0.154262,0.053084,0.023294,-0.054064,-0.000956,-0.068581,0.089853,0.041735,-0.180065,-0.035187,-0.168163,-0.026275,-0.045409,-0.124719,-0.046841,0.035286,0.079114,-0.155289,0.065400,-0.085104,0.054254,-0.098370,-0.042651,0.059832,0.116754,0.065371,-0.083359,0.101389,0.053802,0.051199,-0.049249,-0.018936,0.013053,-0.092351,0.069227,0.144531,-0.003903,-0.058792,0.120970,0.083366,0.095202,-0.105569,0.020374,-0.114502,-0.031997,0.005585,0.049011,0.062772,-0.026583,0.047911,-0.110760,-0.043662,-0.108872,0.025228,-0.017092,0.127631,0.084478,0.094685,-0.001448,-0.059110,-0.013642,0.034412,-0.096663,-0.048414,-0.073797,0.155375,0.170975,0.032724,-0.088802,-0.071835,0.005059,-0.048085,-0.060465,-0.077584,0.128833,0.044870,-0.060828,-0.019856,0.160980,0.137536,0.021270,0.115163,0.146906,-0.052343,-0.101847,0.017480,0.038607,0.113515,-0.025338,-0.076832,0.071322,-0.117184,0.042574,0.066900,-0.084331,-0.079433,-0.003331,-0.104220,0.114968,-0.010880,-0.017555,-0.072058,0.011449,-0.009962,-0.079430,0.077236,0.047191,0.105318,0.015296,-0.117809,-0.082434,0.015054,0.061305,0.070841,0.017784,-0.039052,-0.079987,0.049430,-0.110356,0.053687,0.071518,-0.037368,0.108034,0.031292,0.009989,0.047174,-0.067534,-0.068659,-0.109380,0.105614,0.106070,0.082324,-0.001386,-0.007774,-0.103132,0.021509,-0.025639,0.065779,-0.118981,-0.117545,0.029349,-0.072559,0.084332,-0.028621,-0.084958,-0.047306,0.112650,-0.060969,0.055326,-0.055818,0.079659,0.003714,-0.040944,0.055040,-0.035236,0.034344,0.025158,0.104039,0.117963,-0.118487,0.127719,0.015285,-0.020185,0.042325,-0.097979,-0.095990,-0.055559,0.131945,0.101615,0.090759,0.051868,0.047503,-0.058672,-0.103536,0.020525,0.007747,-0.022493,0.084872,-0.093436,0.138303,0.034319,0.036950,0.051554,-0.053059,-0.012859,-0.036456,0.154776,0.142137,-0.060807,-0.229865,0.071803,0.105328,0.142218,-0.023085,-0.149258,-0.102395,-0.031877,0.213487,0.277009,-0.135427,-0.142133,0.005170,0.069123,-0.037399,-0.170261,-0.069588,-0.262991,0.014305,-0.071821,-0.076831,0.059844,0.067268,-0.139845,0.037311,-0.004934,0.092928,0.099698,0.032948,-0.130327,-0.099149,0.025086,0.087135,0.106633,0.114155,-0.001764,0.051097,-0.111424,0.040092,-0.103642,0.003235,-0.069068,0.110169,-0.028773,-0.106420,0.012067,0.013112,-0.025507,-0.049648,0.094780,0.108005,0.067048,-0.108646,-0.081623,0.118453,-0.042347,0.014213,0.079578,0.028911,0.102269,0.073025,-0.011401,0.108253,0.054963,-0.022860,0.079370,0.043154,0.072899,-0.030781,-0.051567,0.025998,0.033790,0.030474,0.055055,-0.130891,0.001581,-0.070605,-0.038177,-0.022404,0.029086,0.022350,-0.042111,0.122412,0.089553,0.040608,0.138499,0.061815,-0.057704,0.110195,0.087355,-0.009518,-0.099797,0.032595,0.042733,-0.053278,-0.146945,-0.091537,0.046182,-0.129883,0.078144,0.015234,0.024180,-0.047630,-0.101265,0.080628,0.062707,0.083567,0.093268,0.064819,0.117971,-0.015926,0.097360,-0.053268,-0.068354,-0.077993,0.026237,0.024547,-0.019381,-0.056008,-0.094230,0.028985,0.112351,-0.036017,0.010916,-0.052564,-0.081721,0.002497,0.029040,0.028605,0.053219,0.066392,0.035331,0.009818,-0.020610,0.104274,0.077469,0.068599,-0.033894,0.087837,0.071453,0.087461,0.075696,0.095376,0.016160,0.015389,-0.014020,-0.057634,-0.119773,-0.099426,-0.061737,0.034047,-0.065520,0.050837,-0.075709,0.027887,-0.005948,-0.006224,-0.023547,-0.114643,-0.053200,-0.057085,-0.054212,0.027022,-0.093878,-0.039926,-0.019158,0.114384,-0.000567,-0.127258,-0.127850,-0.050265,0.009821,0.021866,-0.127352,0.079237,0.109643,-0.001658,0.031974,-0.112701,-0.030389,-0.083662,0.000533,-0.121223,-0.101494,0.105350,-0.119347,0.002211,0.065860,-0.083803,0.110155,-0.144902,-0.016851,-0.071876,0.039915,0.092088,-0.081131,0.002002,0.146531,0.061652,0.069174,-0.076607,0.100181,0.059513,0.231296,-0.084098,-0.060060,-0.007651,0.026583,0.076766,0.155627,-0.023695,0.023467,-0.070408,0.089853,-0.030427,0.055908,-0.095415,-0.192234,-0.092511,-0.126552,0.010027,0.132561,-0.039198,0.053529,-0.000691,0.114624,-0.025392,0.041964,0.015017,-0.076912,-0.132679,0.020901,-0.028184,-0.102598,-0.007941,0.018679,-0.109292,-0.096663,-0.058752,-0.091518,0.089795,-0.078317,-0.095343,0.076068,0.049215,-0.059536,0.112253,0.001473,0.102851,-0.076577,-0.105988,-0.073518,-0.106753,0.008896,0.001539,-0.061037,0.119993,0.117597,-0.106277,0.061397,0.009225,0.037739,0.120723,-0.115683,-0.119089,0.109976,-0.029267,0.032156,-0.004745,0.049060,0.005739,-0.069924,-0.081503,-0.044151,-0.039288,-0.030694,-0.055385,-0.010821,0.071119,-0.019086,0.101154,0.003817,0.002544,0.122270,-0.068517,0.036698,-0.115359,0.074302,-0.087572,0.146346,0.059436,-0.064814,-0.041054,-0.077617,0.020682,-0.088285,0.072744,-0.102109,0.035726,-0.047174,-0.078417,-0.088612,-0.090040,0.122083,0.100383,0.117526,0.115401,-0.095618,-0.034646,-0.021375,0.025502,-0.109681,-0.020449,-0.016180,0.064411,-0.117567,-0.006370,-0.091412,0.056937,-0.030013,-0.033648,0.097984,0.052581,-0.123418,-0.110482,-0.069447,0.031748,0.086577,-0.088833,0.094043,0.063464,-0.006799,-0.050422,-0.052159,-0.094332,0.116231,0.046037,0.024605,0.025648,0.090572,-0.094112,0.011931,0.011145,0.104500,-0.044918,-0.031872,-0.057736,0.104227,0.106435,0.111722,-0.045246,0.058483,0.078753,0.107384,-0.114304,-0.103936,-0.091970,-0.040059,-0.012329,0.021116,0.054535,0.083654,0.016856,0.009498,0.055669,0.004440,-0.030603,0.094376,-0.004681,-0.025994,-0.084295,0.105875,-0.111691,0.028257,-0.070681,-0.043439,0.053496,0.057524,-0.076548,-0.084609,-0.092371,0.071292,0.064266,0.007860,-0.068800,0.076239,0.131997,-0.038788,0.068874,0.107115,0.041408,0.059815,-0.101629,-0.111967,-0.065758,0.113053,-0.036344,-0.075673,0.095939,0.018242,-0.156888,0.086754,-0.051355,0.004461,0.049071,-0.068976,-0.149017,0.080332,0.037361,0.126703,-0.064653,-0.061242,-0.026120,-0.101489,-0.092608,0.080355,-0.037655,-0.094927,-0.123617,0.021614,-0.016664,-0.069353,0.036103,-0.062221,-0.076615,-0.032490,0.081929,0.000003,0.109207,0.011597,-0.036212,-0.000449,0.107193,0.043793,-0.079221,0.048144,-0.040012,0.055595,0.009582,-0.067312,0.031505,-0.006926,0.028756,0.158369,0.060028,0.141022,0.100462,-0.071851,0.118277,-0.103381,0.073147,0.145148,-0.002320,-0.014354,-0.022123,0.134542,0.019469,-0.050279,-0.073302,0.078769,0.135535,-0.034720,0.024581,0.134819,0.070678,-0.003478,0.021426,-0.103225,0.038634,0.142741,0.001448,0.050014,0.027120,0.007176,0.027946,-0.103479,0.091889,-0.029922,0.097762,0.081966,0.056007,-0.100616,0.032557,-0.086848,0.099400,-0.051181,-0.009668,0.016192,0.042161,0.132934,-0.027365,0.028482,-0.035571,0.051343,-0.079334,0.083314,0.011382,0.033323,-0.099841,-0.022319,-0.028647,0.076131,0.009951,-0.038153,0.044801,-0.003485,0.089576,0.008449,0.044415,-0.009501,0.108006,0.008895,-0.042616,0.065677,0.034484,0.016276,-0.028739,0.007902,-0.016646,-0.002961,-0.074758,0.006479,0.133860,0.076522,-0.092209,0.072134,0.006837,0.092897,-0.084187,-0.031750,-0.023188,-0.049812,-0.011456,0.054194,-0.018390,-0.025595,0.057753,-0.034952,-0.097009,0.039301,0.134677,-0.099358,0.100439,-0.009532,0.144461,0.102738,0.117941,0.017841,0.006544,0.066932,-0.033307,-0.016176,0.127678,0.138859,-0.044985,0.124890,-0.047015,-0.096658,-0.017964,-0.023615,-0.056798,-0.057797,0.073359,0.105770,0.142692,-0.033892,0.063490,-0.003269,-0.063616,0.017779,0.142135,0.014638,0.105951,-0.007761,0.021458,0.035390,0.090506,0.047518,-0.075378,0.026367,0.063794,-0.062379,-0.051670,0.153786,0.119370,0.004575,0.130864,0.104181,0.058122,0.013609,0.123913,-0.018088,-0.041337,-0.061282,-0.082888,-0.001477,-0.006038,0.020951,0.045701,0.054267,-0.066294,0.052064,-0.128920,0.094661,0.024858,-0.043792,0.149092,0.164013,-0.056993,0.131482,0.007475,0.112475,0.121464,0.125533,0.022431,-0.083198,0.019944,-0.033360,-0.016657,0.010804,0.036980,0.146485,0.075918,-0.036527,0.160592,-0.059883,0.044803,0.113101,0.160420,0.149917,0.023928,-0.093505,0.055180,-0.103614,-0.119475,0.026039,0.002604,-0.036912,-0.043379,-0.102046,0.092764,0.046912,0.161696,-0.056518,-0.074746,0.108670,0.074688,-0.084360,0.081871,0.059219,-0.060423,-0.095256,-0.088384,-0.040920,-0.079629,-0.047453,-0.019468,0.073278,0.126039,0.114878,-0.104007,0.005459,0.130862,0.064875,0.003528,-0.107272,0.066495,-0.018865,0.004290,0.070004,-0.062699,0.045605,0.014299,0.039397,0.021546,-0.043982,-0.166467,-0.101909,-0.002644,0.012626,0.079855,-0.067453,-0.008026,0.025435,-0.025991,-0.152660,-0.083223,0.077384,-0.044252,-0.146225,0.119123,-0.007949,-0.088954,-0.077362,-0.061038,0.073695,0.065897,0.106755,-0.093070,0.075241,-0.001279,-0.017932,0.022053,0.030421,-0.104798,0.132016,0.101412,0.045961,-0.070840,-0.061891,-0.113065,0.017871,-0.072573,0.020950,-0.025846,0.052372,-0.086096,0.016708,-0.049546,0.027041,0.011558,0.090461,-0.024846,-0.004202,0.086434,0.030565,0.085496,-0.052902,0.099858,0.045167,0.009510,0.029780,-0.032171,-0.045596,-0.110870,0.079613,-0.061954,0.038126,0.105367,0.072097,-0.010561,-0.092065,0.056114,-0.064342,0.124621,0.016229,-0.028033,0.110611,-0.102662,-0.018263,0.003151,-0.110990,0.012531,-0.023615,0.102939,-0.084306,-0.077773,-0.069937,-0.043055,0.079683,0.090861,0.098561,-0.119357,-0.037109,-0.105482,-0.014803,-0.038343,-0.054613,-0.030722,0.030769,-0.021587,0.095754,0.014079,0.020167,0.016199,-0.067993,0.002612,-0.006233,0.031326,-0.194107,-0.016324,0.154884,0.035520,0.114074,-0.039109,-0.056089,0.080256,-0.122644,-0.075330,0.026471,-0.052712,-0.102493,-0.186846,-0.101629,0.011411,-0.228184,-0.156100,-0.240628,-0.146544,0.244220,0.135105,0.020040,-0.378480,-0.212528,-0.154001,0.165639,0.198746,0.046055,-0.238908,-0.021280,0.234097,0.206547,0.129336,0.065988,0.085048,-0.026646,0.023564,0.257370,-0.010770,0.119749,0.076992,0.153549,0.109626,0.007312,-0.032937,0.123316,0.001741,0.019986,0.081528,0.061162,0.088740,0.000732,-0.048187,0.067868,0.022470,0.091816,-0.017726,0.075818,0.032888,0.008509,-0.015737,-0.107431,-0.145422,-0.062504,0.078573,0.071673,0.070920,0.092663,0.105544,0.093271,-0.026277,0.037944,-0.016909,0.052852,0.031195,-0.084705,0.124071,0.019714,-0.002938,0.000266,0.009222,-0.064195,-0.015126,0.110100,-0.028422,0.017667,-0.111757,0.096463,-0.056785,0.084629,0.090428,0.027716,-0.044990,0.072947,-0.014580,-0.161184,-0.012258,-0.036209,-0.101374,-0.027989,-0.124091,0.112242,0.045934,0.119798,-0.006217,0.086314,0.011874,-0.130160,-0.027848,0.062538,0.130945,0.019721,-0.116704,0.140126,-0.113380,0.005141,0.074528,-0.058858,-0.100030,0.002590,-0.039011,-0.013133,0.070826,0.081528,-0.073295,-0.043343,-0.111743,-0.055070,-0.109540,-0.013424,-0.080277,-0.092903,0.050889,0.024352,0.047739,-0.098519,-0.052134,-0.024883,-0.083208,-0.120124,-0.021780,-0.042270,0.050146,0.036955,-0.022050,0.019660,-0.091896,-0.045565,-0.023529,-0.067845,0.068816,-0.081940,0.032951,0.028428,0.010074,-0.054656,-0.007391,0.076626,-0.011783,0.005835,0.094315,0.002286,-0.115572,-0.019106,0.115412,0.078747,-0.091596,-0.040987,0.026989,0.088579,0.030912,-0.044262,-0.079596,0.123413,-0.009706,-0.090982,0.044198,0.012627,0.007808,-0.032232,-0.081740,0.110192,-0.007818,0.069935,-0.016146,-0.126227,0.096641,-0.046724,-0.080517,-0.107387,0.013290,-0.118488,0.046881,0.166593,0.025770,0.138199,-0.178221,0.009541,-0.070722,-0.099893,-0.005139,-0.089871,-0.057038,0.006145,0.004307,-0.083515,0.057389,0.172007,-0.014676,0.036971,0.084151,0.107305,0.112904,0.117803,0.134886,-0.079460,0.109834,0.210690,0.059296,-0.034634,0.015425,0.103735,0.129420,0.015163,-0.137901,-0.042836,0.096331,-0.002202,-0.220457,0.013863,0.122721,-0.021978,-0.144378,-0.060634,0.057554,-0.089797,0.242449,-0.062463,0.050231,-0.078403,0.143000,0.042492,-0.042155,-0.056457,-0.048103,-0.107076,-0.017612,-0.057731,-0.019033,-0.007242,-0.100769,-0.113971,0.080997,-0.085478,0.064462,-0.024581,0.119982,0.097457,0.077723,-0.118536,-0.048526,0.025971,0.056063,0.081026,0.060558,-0.088841,0.085626,0.028062,-0.077130,-0.092908,-0.055512,-0.068824,0.102143,0.007389,0.021764,-0.031536,-0.056180,-0.020798,-0.117170,0.076261,-0.051415,-0.047344,-0.014102,0.006090,-0.104220,0.065022,0.060612,0.048542,0.127222,0.055011,0.093065,-0.034078,0.028113,0.078792,0.022953,0.071658,-0.086126,-0.087716,-0.079491,-0.038311,0.021618,0.064684,-0.068744,0.155154,-0.121325,-0.024293,0.083582,-0.021360,-0.032230,0.068011,-0.083196,0.054186,-0.120035,-0.060211,0.099585,-0.124134,-0.066468,-0.062796,-0.030471,-0.055732,-0.040437,0.056889,-0.017295,0.086726,0.096529,-0.087440,0.040855,0.116511,-0.085273,-0.054793,0.113850,0.014371,-0.076632,0.094426,-0.094007,-0.062468,-0.078388,-0.020680,0.045131,0.023127,0.006848,-0.028423,0.027465,0.065267,-0.026717,0.120640,0.121570,-0.076926,-0.000875,0.033597,0.022568,-0.072839,0.043745,-0.109584,0.063180,-0.117924,0.111994,-0.096707,-0.108985,0.022851,0.094932,0.116845,-0.086810,-0.053284,0.044722,-0.006007,0.115322,0.051070,0.091402,0.046818,0.082876,-0.044026,0.028118,-0.088174,-0.119382,0.059224,-0.037692,0.030384,-0.072834,0.053743,0.119419,-0.074327,-0.061357,-0.013378,-0.100491,-0.078749,-0.050914,0.107993,0.026063,-0.084754,-0.053938,-0.085952,-0.090040,-0.125073,-0.014777,0.037390,-0.022983,-0.049960,-0.019063,-0.065032,-0.004473,0.104153,0.001138,-0.068798,0.027778,-0.114441,0.082414,0.122572,-0.027320,0.088987,-0.073773,0.081313,0.157050,0.010467,0.034330,-0.032622,0.181549,0.069251,0.094060,0.016160,0.092201,-0.006670,0.167405,-0.038048,-0.117119,0.107116,0.007819,-0.092191,-0.106370,-0.064249,-0.048914,0.095284,-0.124917,-0.164521,-0.026074,-0.098508,-0.023655,0.059428,-0.089755,0.013488,-0.183586,-0.015003,0.036846,-0.030006,-0.093989,-0.068135,0.140824,-0.081584,-0.141852,-0.045436,0.064915,-0.031158,0.084862,-0.005133,0.059825,-0.143333,0.012892,0.151911,-0.108922,0.089424,0.004084,0.006520,0.179837,-0.040418,-0.120402,-0.045513,0.208074,-0.062208,0.002363,-0.119062,0.079153,-0.065905,-0.040376,0.070495,0.054249,0.052221,0.035978,-0.000736,-0.114840,-0.019543,-0.009525,0.028632,-0.075607,-0.071302,-0.044896,-0.048662,0.038372,-0.030267,-0.084411,0.016075,-0.056141,-0.043700,-0.012543,0.026597,0.073556,0.020648,0.071779,-0.081377,0.050769,-0.085041,-0.171209,-0.002894,-0.169509,-0.150215,-0.178158,-0.128148,-0.085691,0.010236,0.019102,-0.040328,0.005827,0.080322,0.209016,0.024524,0.150031,0.130544,0.006195,0.083097,-0.070220,0.051781,-0.014248,-0.030618,0.002968,-0.009824,-0.031436,-0.030026,-0.047335,0.044985,0.080890,-0.014981,0.106643,0.086786,0.001118,-0.033020,-0.127279,-0.055687,-0.051149,0.055294,0.004139,0.102421,0.089265,0.066568,0.063730,0.073109,0.001419,0.014783,0.079498,-0.017217,-0.013160,-0.109699,0.110269,0.086672,0.118910,0.120196,-0.084719,-0.105248,-0.069992,0.054893,-0.101306,-0.077705,-0.042481,0.082209,-0.071695,-0.019460,0.051516,-0.124854,0.033111,-0.119705,-0.049934,0.027000,0.013750,-0.134095,-0.077234,0.055259,-0.016247,0.033670,0.061690,-0.079484,0.105902,0.028016,0.047246,-0.110801,-0.058281,0.023932,0.050554,-0.070751,-0.047891,0.043698,0.043915,0.024322,0.071123,0.045377,-0.002269,0.000122,0.016620,0.090492,0.033158,0.001351,0.075143,-0.184670,0.012833,0.078651,-0.052053,-0.005612,-0.146676,0.102355,-0.005550,-0.312637,-0.019437,0.114564,-0.019303,-0.131160,-0.189956,0.005493,-0.123925,-0.260712,-0.283552,-0.290849,-0.114216,-0.032613,-0.103047,0.038879,-0.283176,0.048590,0.034935,-0.129117,0.019893,0.258437,0.178403,0.268989,0.066827,-0.072895,0.098151,0.169815,0.212456,0.243801,0.026659,0.212611,-0.075875,0.127077,0.157618,0.218147,0.125096,-0.031955,-0.039947,0.037364,-0.088681,0.063810,-0.010010,-0.123733,-0.101764,0.117723,-0.021890,0.130623,-0.035363,0.074167,0.021305,0.005417,0.083402,0.043847,-0.064352,-0.020323,-0.065440,0.125467,-0.092823,0.060981,0.026656,0.091516,0.031608,0.025598,0.124099,-0.039045,-0.096037,-0.073877,-0.085266,0.053398,0.117031,-0.001099,-0.090022,0.087987,0.047650,0.099714,-0.077117,-0.059277,-0.061968,-0.000042,-0.008308,0.031426,0.092571,0.066094,0.028910,-0.079928,-0.055305,0.027036,-0.128661,0.055366,-0.091520,0.006502,0.065972,0.131039,0.010581,0.059511,-0.031740,0.167122,-0.047391,0.051125,0.027592,0.005439,-0.058109,0.131597,0.086044,0.088161,-0.111723,0.019491,0.043175,-0.063001,-0.012710,0.002172,-0.038418,-0.081775,-0.065772,-0.121250,0.107524,0.068571,0.038910,0.016482,0.034545,-0.073566,-0.052682,-0.016004,-0.011953,-0.074851,-0.050526,0.062407,0.024343,-0.082605,-0.097193,0.007432,0.084134,-0.098177,-0.088645,-0.098038,0.025326,-0.117488,0.099403,-0.099811,-0.040705,-0.041925,0.004010,0.117931,-0.079093,-0.093544,0.112374,-0.073108,-0.015642,-0.042051,-0.072394,0.039010,0.125645,0.002544,0.035143,0.109207,-0.062719,0.033017,-0.040606,-0.122375,0.119605,0.009240,0.076901,-0.013533,-0.117164,-0.077231,-0.023369,0.019288,0.081339,-0.040325,0.011443,0.034767,0.115708,0.121870,-0.090420,0.014653,0.011079,0.125667,0.100379,0.057585,0.103733,0.093003,-0.035145,-0.069098,-0.096404,-0.020394,0.054714,0.053756,-0.049572,0.025080,-0.078330,0.083281,-0.061369,0.022910,0.133968,0.096687,0.098631,-0.095900,-0.026792,-0.057569,0.000603,0.037490,0.025346,0.091956,0.108124,0.071358,-0.056515,0.063778,-0.027182,0.197006,0.014300,0.100799,0.084542,-0.133343,0.016313,-0.010050,-0.050336,0.049561,0.057690,0.039760,-0.227591,0.050781,0.177328,0.116304,-0.038502,-0.077993,0.165416,-0.075380,-0.171492,-0.116464,0.027149,-0.016442,-0.025211,-0.040556,0.071729,-0.014789,-0.087585,-0.032081,-0.060531,-0.048076,-0.033466,0.045158,-0.071497,0.053296,0.059456,-0.104592,0.090212,-0.058320,0.101205,-0.052860,-0.070937,-0.068785,0.094175,0.100025,0.120851,-0.093035,-0.104231,0.115106,-0.102017,0.028174,-0.072483,-0.115551,0.096992,0.020181,0.033126,-0.080732,0.010667,0.036062,-0.043659,0.044596,0.036274,0.034918,0.093363,-0.036655,-0.080991,0.083981,0.076689,0.058894,-0.081793,-0.076179,0.013978,-0.071762,-0.121638,-0.005412,0.065017,0.066927,0.028657,0.140357,-0.028592,0.045504,0.101056,0.102704,-0.128028,-0.017025,0.010313,0.080446,0.064478,0.031134,0.073976,-0.073409,-0.081994,0.054165,-0.162529,-0.116968,0.182706,0.064840,0.160167,-0.059241,0.104704,-0.097128,0.009648,-0.091916,-0.068310,0.098912,-0.125471,-0.115956,0.091680,0.099145,0.061987,0.028134,0.084643,0.005533,-0.034417,-0.067343,0.071098,-0.095929,-0.015082,-0.093945,0.032698,-0.050704,0.071900,-0.009218,-0.065739,0.051327,-0.025794,0.104226,-0.034493,0.064161,-0.027887,-0.090696,0.020400,-0.058977,-0.064842,0.020595,0.095962,0.027863,-0.042581,0.019209,-0.106510,-0.055163,-0.063704,-0.010603,0.087284,-0.116086,0.083812,0.112359,-0.087996,0.003366,0.000111,-0.089064,-0.085721,-0.044339,0.048993,0.111505,0.063608,0.084601,0.080826,0.026715,0.086242,-0.120473,-0.080243,-0.126420,0.017755,-0.084579,0.078858,-0.126954,0.043958,0.039431,-0.114838,0.006975,-0.010722,-0.032155,-0.111655,-0.099048,0.070606,-0.041799,-0.010303,0.103111,0.101497,0.050858,0.015449,0.143583,0.039711,-0.012687,0.135096,-0.121292,-0.022445,0.036068,-0.164257,0.184678,-0.091857,0.184561,0.013176,0.090803,-0.071926,-0.184381,0.115224,-0.103465,0.021106,-0.156441,0.092436,0.073055,0.136985,-0.037015,0.171325,0.071986,-0.269552,-0.284007,-0.055642,0.157613,-0.023080,-0.153952,-0.212536,0.127973,0.030343,0.187543,0.043007,-0.082464,-0.025720,-0.000557,0.266296,0.005256,-0.077653,0.008171,0.013023,0.142363,0.024428,-0.018005,0.057604,0.027689,-0.015002,0.087223,-0.066283,0.021449,0.110110,-0.098931,0.084188,-0.106279,0.006069,0.104697,-0.039109,-0.074613,-0.055760,-0.019142,-0.022632,-0.078089,0.047676,0.041118,0.089851,0.085113,0.015993,-0.003005,0.050339,0.014186,0.058131,0.010579,0.101761,-0.101323,-0.078362,-0.113390,-0.040226,0.067268,-0.000433,0.068969,0.038247,-0.062732,0.064550,0.130387,0.087997,0.121236,-0.029928,0.026682,-0.032109,0.101946,0.124479,0.007390,-0.080365,-0.095500,-0.005379,0.017992,0.036112,0.061737,0.055615,0.013123,-0.065708,0.047963,0.057156,-0.043274,0.046497,0.108648,-0.121051,-0.077037,-0.070206,-0.046284,-0.002888,0.000806,-0.175514,0.037662,0.127977,-0.028350,-0.111808,-0.057570,-0.020050,-0.057457,0.051566,0.035119,0.020598,0.111815,-0.054300,0.021663,-0.020350,0.104137,0.047692,-0.080583,0.116185,-0.097910,0.115834,-0.100728,0.028470,0.085758,0.129618,-0.090686,-0.071370,0.127112,-0.099472,-0.115802,0.095487,0.024810,0.034060,-0.090861,-0.039175,0.116697,-0.059111,-0.019974,0.073301,-0.004953,-0.068455,-0.029543,-0.041464,-0.111197,0.077882,0.115677,0.036084,-0.103293,-0.109386,-0.023511,-0.058971,-0.021139,-0.048277,-0.023468,0.091564,-0.030244,0.038709,0.090061,-0.039410,0.055048,-0.007386,0.008450,-0.037043,-0.113291,0.058513,0.125364,-0.110558,0.039266,0.120640,0.090213,-0.010649,0.124611,0.009061,0.059650,-0.061744,0.046459,-0.106380,-0.107180,-0.008192,0.043609,-0.051784,-0.038525,-0.139138,-0.036449,-0.093402,-0.040318,-0.102325,0.045658,-0.108439,0.098426,-0.127746,0.024343,-0.075267,-0.087128,-0.023357,-0.021565,-0.084828,-0.113314,0.078491,0.139652,-0.048812,-0.064789,0.125843,0.171724,0.189367,-0.012705,0.019239,0.107704,-0.099206,-0.172071,0.271460,0.194652,-0.036862,0.029434,-0.125781,0.030270,0.128722,0.018772,-0.082628,-0.095819,0.161445,0.042101,-0.057175,-0.104861,-0.187390,0.089223,0.019392,-0.074817,-0.021171,-0.123919,-0.008277,0.077729,-0.055020,0.111145,0.038014,0.161443,0.002537,-0.045997,0.112574,0.082085,0.024460,-0.066642,0.109119,-0.018505,0.131029,0.037193,-0.028693,0.031412,-0.059051,0.057633,0.135817,0.096324,-0.091403,0.037878,0.142041,0.062049,-0.017698,-0.114519,0.116257,0.119993,-0.028716,0.084377,0.095846,-0.023788,0.015603,-0.037853,0.025945,0.127792,-0.036454,-0.015386,0.018270,-0.028666,-0.021689,0.002700,-0.074350,0.132257,0.075408,-0.097893,0.115238,-0.031953,-0.052553,0.032916,-0.018441,0.069930,-0.028263,0.120390,0.134610,0.021156,0.051399,0.068673,-0.019979,-0.028987,-0.077202,-0.136343,0.096477,-0.043656,-0.057602,-0.184746,0.012445,0.070748,0.158947,-0.136001,0.140635,0.125110,0.112278,0.051777,-0.009557,-0.095957,-0.075607,-0.001478,0.108024,-0.061678,0.021039,-0.034602,0.075393,0.021450,0.093595,-0.010103,0.051973,0.048992,-0.063248,-0.027010,0.112945,-0.039320,-0.065460,-0.051477,-0.006762,0.035708,-0.023072,-0.048209,-0.059479,-0.093241,-0.089582,-0.078203,-0.092644,-0.015365,0.109339,-0.108116,-0.044515,0.038737,0.114459,0.062928,0.076823,-0.076093,-0.032933,-0.090534,-0.110032,-0.031048,-0.096330,-0.035323,-0.046352,0.101005,0.063983,0.066118,0.008106,0.129716,-0.025122,-0.105144,0.097947,0.100888,0.116201,-0.063775,-0.053429,-0.032480,-0.114401,-0.095394,0.107242,-0.091641,0.022266,0.108328,-0.000182,-0.088884,0.018507,0.071458,-0.108446,-0.109152,-0.101865,-0.076921,0.104481,-0.113310,0.020948,0.115055,-0.018460,-0.136103,0.110094,0.087229,0.209248,-0.109673,-0.130789,-0.084711,-0.104217,0.103383,-0.206955,0.155785,0.038498,-0.043656,0.091361,0.116151,-0.015887,-0.047315,-0.001209,-0.041974,-0.163216,0.095984,-0.106032,-0.235694,0.037701,0.138384,0.138717,-0.119487,-0.413935,-0.150402,0.007668,-0.015344,0.003689,-0.044327,-0.021796,0.090613,-0.014707,-0.087635,0.188787,-0.052537,-0.068588,-0.005016,-0.091771,0.152315,-0.025931,-0.267379,-0.125695,0.015361,-0.049656,-0.081134,-0.055617,0.003416,0.088013,0.123117,-0.102701,-0.011139,-0.081624,-0.059187,-0.034666,-0.035450,-0.117549,0.086773,0.000374,0.064829,0.025566,0.100736,-0.012807,-0.067496,0.014771,-0.028906,-0.067699,-0.022995,-0.133778,-0.041930,0.058936,0.047056,0.045720,-0.027790,-0.115897,0.042473,-0.042063,0.098975,-0.125631,-0.104150,-0.002800,0.005038,0.094399,0.095908,0.080637,0.062021,-0.113212,0.009006,-0.027260,0.086007,0.036361,0.116740,-0.029622,0.067155,0.018084,0.059492,0.038350,0.040720,-0.074610,0.099632,-0.078995,0.122223,-0.035725,0.105160,-0.041519,0.073046,-0.045372,-0.107085,-0.074994,-0.118681,0.020046,-0.103977,0.030400,-0.081629,-0.076369,-0.072635,-0.102423,0.099500,-0.110577,0.014045,0.033279,-0.107545,0.075533,0.106124,-0.113246,0.009932,-0.069470,-0.086104,-0.084818,0.061269,0.066584,0.000200,-0.032864,-0.122117,-0.127214,0.077136,0.033079,0.069032,0.048711,-0.013560,-0.007867,0.053997,0.054703,-0.116008,0.072683,-0.064174,-0.043027,0.041443,0.004414,-0.031200,0.099420,0.087905,0.031119,0.058670,-0.053500,-0.119116,0.008112,-0.014170,0.025067,0.022867,-0.047049,0.030473,-0.031691,0.069608,0.111287,-0.052522,0.068325,-0.085477,0.020818,0.060275,-0.029892,-0.090256,0.047476,-0.055582,-0.031673,-0.088906,0.081830,0.068172,0.014616,-0.042029,0.044128,0.011582,-0.026577,0.049432,-0.096709,0.096098,0.043922,0.084670,-0.085549,0.105562,-0.110325,0.000409,0.002966,-0.032368,0.116124,-0.080930,0.010427,-0.108876,0.036635,-0.088333,-0.088307,0.088846,-0.105153,-0.120691,0.025227,0.070519,-0.070538,-0.037861,0.085743,0.061557,0.107162,-0.133981,0.009193,-0.082351,0.063125,0.101551,-0.113529,-0.056302,-0.109577,0.087022,0.166003,-0.035246,0.047942,0.046385,0.012886,-0.103477,0.073138,-0.045014,-0.077288,-0.081215,-0.120606,-0.147027,-0.061497,-0.025093,-0.051766,0.075498,-0.024731,-0.012127,-0.047404,-0.047750,0.043158,0.073676,-0.105371,-0.145836,-0.062411,-0.073299,-0.033235,0.039701,-0.018298,0.007977,0.066025,-0.080629,0.003431,-0.126682,0.019598,-0.045265,-0.086692,-0.085622,0.073148,-0.025197,0.051166,-0.003514,0.037316,0.001618,0.115232,0.060062,-0.041073,0.045046,-0.075849,-0.025863,0.080221,0.109847,0.016654,0.019463,-0.090191,0.111485,-0.058669,-0.046116,0.095608,0.082146,-0.108825,-0.019005,-0.092140,-0.061842,0.004435,-0.098358,-0.032148,-0.070088,0.104134,-0.053533,-0.081352,-0.101356,-0.083847,-0.066520,-0.033386,0.115223,-0.071527,0.037360,-0.149195,0.022855,-0.044077,-0.056195,0.112026,-0.102631,0.056178,0.091604,-0.031438,-0.052158,0.071992,0.111298,0.065957,-0.008251,0.100186,-0.011116,-0.018066,-0.130576,0.106165,0.141883,-0.017297,-0.051999,0.072045,0.066368,-0.022056,-0.101399,0.076457,0.071074,-0.123227,-0.086699,0.004291,0.099215,-0.032909,-0.045130,-0.024304,-0.053234,0.100462,-0.029985,0.006428,0.013631,-0.115598,0.035011,0.071682,-0.049345,-0.102730,-0.014247,0.122617,-0.092344,-0.089833,0.035091,0.080026,0.021876,0.024486,0.025483,-0.009210,-0.050681,0.011848,-0.107701,0.067405,0.066223,-0.079728,-0.067354,-0.010890,0.096026,-0.088786,-0.071173,-0.039800,-0.025149,-0.104936,-0.054881,-0.113361,-0.040642,-0.015816,-0.005234,0.029539,0.100217,0.049009,0.036236,-0.015373,-0.013282,0.123546,0.035724,-0.105632,0.084639,-0.014181,-0.065305,-0.072343,-0.110552,-0.051589,-0.098158,-0.054417,-0.005917,-0.120710,0.092595,0.091167,-0.112185,-0.121427,-0.009141,-0.157582,-0.119707,0.037067,-0.125570,0.017998,0.076074,-0.008254,0.131344,0.096803,0.116834,0.135147,-0.107423,0.121163,0.118937,0.020118,-0.091817,0.081148,0.054198,0.033605,-0.068645,-0.078337,0.073899,0.105218,-0.128858,0.040443,-0.047958,0.090798,0.117596,-0.065893,-0.028907,-0.038641,0.086865,-0.080576,0.050430,-0.144276,-0.060123,-0.056556,0.050346,0.088027,0.050909,-0.159329,-0.121745,-0.091949,0.004230,-0.076235,-0.087911,-0.012926,0.074206,0.068941,-0.086938,0.119484,0.098228,-0.002748,0.136445,0.068324,0.071170,-0.025639,0.071898,0.116142,-0.073842,0.059567,-0.087678,-0.093255,0.015506,0.071360,-0.051816,-0.019270,0.108409,-0.065660,0.131081,-0.085908,0.110010,0.011008,0.010208,0.029465,0.097950,-0.026458,0.029945,-0.102797,-0.100128,-0.120529,0.027590,-0.019687,-0.022319,0.103465,-0.069618,-0.097446,0.120738,0.017731,0.027830,0.072345,-0.098333,-0.065001,0.049555,0.119515,0.017177,0.078927,0.089673,0.042752,0.145362,0.044847,-0.048814,0.026563,-0.076090,0.122969,0.114356,-0.072265,-0.029522,0.009136,-0.075589,0.083420,-0.111578,-0.018698,0.063707,0.063743,-0.019038,-0.069689,-0.003222,0.116571,0.098801,0.013934,0.145193,-0.098270,0.036902,-0.054122,0.082829,-0.039636,-0.027644,-0.038383,-0.072908,0.067847,-0.085960,0.034132,0.087681,-0.073192,0.049735,-0.012281,0.121563,0.048163,0.122745,-0.055968,0.017525,0.030347,0.056590,-0.087785,-0.007074,0.043689,0.074953,-0.050342,0.020791,-0.058925,-0.028163,0.069019,-0.103419,-0.030575,0.090611,-0.088177,-0.111087,0.110088,0.110104,0.038808,0.048760,-0.099900,-0.111449,-0.096578,0.048259,-0.112210,0.118793,-0.046745,0.007649,-0.066158,0.040649,0.018640,0.041925,-0.016918,0.026994,-0.021435,-0.067477,0.025543,0.077256,0.005888,-0.103410,-0.036491,-0.001718,0.129829,-0.107552,0.052930,0.027456,-0.056913,-0.086322,0.025793,0.031909,0.119006,0.010867,0.123277,0.068956,-0.038945,0.047901,0.085048,0.053441,0.104461,0.079479,-0.124471,-0.000201,0.125724,-0.008442,0.082959,0.018675,-0.038936,0.109270,-0.057573,0.064029,-0.136360,0.099464,0.050903,0.062407,0.094311,-0.032500,0.055735,-0.049648,0.026884,-0.033124,-0.113551,-0.125226,0.127557,-0.071256,0.044043,-0.032780,-0.223483,-0.029458,0.053363,-0.043014,-0.007363,-0.059491,-0.072175,0.029150,0.015327,0.032617,0.155573,-0.095354,-0.011527,-0.080976,0.043309,-0.023261,0.061934,-0.051349,-0.143438,-0.107723,0.148570,-0.044446,0.009989,-0.053182,0.077368,-0.077975,0.003808,-0.037347,-0.094013,-0.097187,0.050309,0.084230,0.094258,0.073523,0.051165,0.037382,0.061400,0.098760,-0.079745,0.030874,0.067161,0.023923,0.094012,0.037648,-0.012713,0.095553,-0.107391,-0.099844,0.031225,0.051170,0.054750,0.095049,0.069358,-0.054617,-0.054028,0.067085,-0.057493,-0.050716,0.109628,0.023323,-0.077630,-0.020746,-0.088333,-0.113882,-0.040783,-0.039539,0.008889,-0.028153,-0.099555,0.074530,-0.013262,-0.005942,0.046813,-0.074729,-0.128651,0.107769,-0.104118,-0.127788,-0.134055,-0.020637,0.005486,-0.005015,0.069387,0.108729,0.054116,0.017431,-0.184451,-0.066823,0.053765,0.078096,0.079694,0.069618,-0.106472,0.140086,0.136086,0.051223,0.081119,0.057275,0.058801,0.005137,-0.073686,0.059812,-0.125410,0.049744,0.047044,-0.098406,0.031311,-0.017963,0.039657,0.060427,-0.002290,0.022032,-0.114533,0.053947,0.035272,0.120011,-0.114854,-0.115316,-0.059466,0.098826,0.050919,0.006452,-0.032161,-0.088487,0.107048,-0.076082,0.018416,-0.002675,0.010584,0.077656,-0.105874,-0.107752,0.096039,0.050344,-0.052297,0.017260,0.013772,0.044634,0.066450,0.105255,-0.029334,-0.114503,-0.078256,-0.055597,0.026494,-0.022648,-0.068064,-0.052782,-0.113252,0.108645,-0.103471,0.043763,-0.080646,0.063913,0.007701,-0.004531,-0.043327,-0.048149,-0.062596,0.108485,-0.026711,0.031918,-0.084860,0.051854,0.066038,0.071395,0.064999,-0.093446,-0.033677,-0.003682,-0.138812,-0.025435,0.137376,-0.107233,-0.146404,0.022735,-0.079944,-0.094570,0.017476,0.023108,0.045898,-0.056001,0.089361,0.060991,-0.145160,0.059039,0.089871,0.062634,-0.050337,-0.190638,0.054560,0.046923,-0.021832,-0.147538,-0.017934,-0.046132,-0.015992,-0.076425,0.176075,0.127080,-0.039782,-0.203395,0.038399,0.154420,0.260192,-0.173636,-0.208571,0.241163,0.255111,0.086216,0.022732,0.007832,0.076754,0.133411,0.310471,-0.014161,-0.066145,0.053076,0.077687,0.143299,-0.068420,0.072882,0.092952,0.066049,-0.010349,-0.051191,-0.015936,0.112027,0.025932,0.124720,-0.023093,0.054564,0.058079,-0.078722,-0.080891,0.099763,-0.018827,-0.133830,0.085197,0.041960,-0.063125,0.134857,0.077141,0.001364,-0.167049,0.072369,0.108295,-0.033973,-0.029608,-0.023024,-0.007852,0.004935,0.003726,-0.087521,0.116410,-0.074500,-0.053468,-0.093937,-0.082692,-0.076362,0.027219,0.061842,0.109158,0.083689,-0.035989,0.123332,-0.055630,-0.091250,-0.081698,0.091591,-0.075593,-0.070813,0.033932,0.119425,-0.133739,0.116210,0.153799,0.023720,-0.014900,-0.005510,-0.028602,0.014805,0.046569,0.148031,-0.082013,-0.087716,-0.015401,-0.046636,-0.022083,0.164231,-0.104645,-0.079533,-0.089931,0.067788,0.002544,-0.050472,0.065712,0.068994,0.065097,-0.092317,0.084253,0.001550,-0.020727,-0.005980,-0.047258,-0.074945,-0.121388,-0.013167,-0.005112,-0.063979,0.008711,-0.037079,0.061710,0.071592,-0.114538,0.114400,0.035889,-0.025177,0.027184,0.011083,0.045960,-0.103220,-0.052238,-0.023367,-0.039985,0.060589,0.044592,-0.119859,0.121318,-0.030123,-0.056997,-0.039328,-0.105655,-0.006873,-0.062828,0.088951,-0.040538,0.050616,-0.038699,-0.029381,-0.044982,-0.062029,0.036060,-0.039802,0.002834,0.025922,0.011160,-0.010427,0.129211,-0.007798,-0.021178,0.002249,-0.080735,0.037257,0.108082,-0.023279,0.080039,0.056145,-0.115153,0.097666,-0.058167,-0.038060,0.042086,0.058592,0.038826,-0.033412,0.064572,-0.096006,0.038118,-0.097243,-0.027144,0.090195,0.108571,0.072000,-0.035281,-0.070534,-0.088873,0.054889,-0.019349,-0.041809,-0.054982,0.043589,0.133241,0.156985,-0.064141,0.240142,0.017485,0.000223,0.064584,0.115125,0.145685,0.083515,0.167930,0.169661,0.169637,0.193152,0.029222,0.027974,0.289817,0.081695,-0.069097,0.023221,-0.069662,0.114130,-0.147480,-0.169725,-0.223614,-0.004157,-0.109777,-0.000666,0.123744,-0.057138,-0.146262,-0.273629,-0.057421,-0.119598,-0.087565,-0.198830,-0.322966,-0.091922,0.068186,-0.049388,0.063184,-0.071995,0.087860,-0.016709,0.093495,-0.115971,0.037473,-0.086000,0.057960,0.131206,-0.059644,0.082449,0.136392,-0.064923,-0.019526,-0.063379,0.006067,0.120817,-0.014104,0.089915,0.100672,-0.016124,0.056528,-0.102023,-0.103694,-0.057746,-0.015953,0.095981,0.047704,0.037445,0.017702,-0.018593,-0.001060,-0.088845,0.032194,-0.023135,-0.078817,0.092145,-0.078415,-0.051716,-0.035532,0.075826,-0.093332,-0.096314,0.031443,0.065902,-0.027013,-0.023682,0.129401,-0.070495,0.029837,-0.100983,-0.140787,0.188226,0.192789,0.128607,-0.062949,-0.098065,0.013953,0.200479,0.055623,0.020626,0.057107,-0.035225,-0.040933,-0.103333,0.048856,-0.004197,0.025915,-0.033527,0.084698,0.077574,0.103466,-0.010879,0.090647,0.123771,-0.072696,0.112404,-0.029781,0.032459,-0.053104,-0.087531,-0.051518,-0.078614,-0.046526,0.081148,0.120504,0.052540,-0.091239,0.117837,-0.075741,0.107861,-0.117315,-0.090426,-0.107208,-0.027699,-0.080586,0.082251,-0.013425,0.132231,-0.062201,0.083954,-0.020669,0.026925,0.106748,0.112770,-0.005652,0.048730,-0.009758,0.014634,-0.072745,0.112165,0.110514,0.022797,-0.005537,0.081653,0.089277,-0.030342,0.072425,-0.086680,0.064940,-0.076513,-0.100821,0.130300,-0.099908,-0.013401,0.058506,-0.047580,0.111901,0.119004,0.113290,-0.007511,-0.053097,0.077532,0.000970,0.103344,0.119739,0.033310,-0.050087,-0.036358,0.056820,0.030019,0.089767,0.041838,-0.111458,0.055015,0.114529,-0.007055,-0.143122,0.082423,0.058662,-0.056788,-0.148816,-0.072283,-0.082387,-0.018232,-0.087651,-0.087035,-0.091251,0.125564,-0.030966,-0.053423,0.038850,0.161166,0.019816,0.010488,-0.046396,0.063516,0.011007,0.089104,-0.069093,0.150397,0.162868,0.063109,0.025646,-0.045686,-0.052635,-0.160615,0.036975,0.091863,-0.005230,-0.082139,-0.241445,0.073105,-0.004127,0.063034,0.036275,-0.005680,0.094697,-0.164301,-0.270265,-0.180592,-0.162790,-0.092749,0.141072,-0.235411,-0.333594,-0.124548,-0.060634,0.107850,0.099100,0.029435,0.005338,0.042869,0.056145,0.122859,-0.057856,-0.049591,0.173478,-0.025874,-0.089038,0.062415,0.128177,0.078111,0.127374,0.144344,-0.006140,0.080312,-0.059214,-0.012808,0.026236,0.069662,0.125198,-0.045120,0.018189,0.027053,-0.023623,0.114155,0.062061,-0.038125,0.102246,0.087137,-0.043518,0.113893,0.005973,-0.031354,-0.078738,0.048593,-0.101413,-0.091922,-0.038135,-0.069166,0.011251,-0.049569,0.117271,0.040399,0.099140,-0.022597,0.017692,0.074423,-0.022968,0.057498,-0.005142,-0.095709,-0.078524,-0.037994,0.055714,0.129261,-0.062056,-0.078814,0.031310,-0.149793,0.030749,-0.068381,-0.033232,-0.019173,0.053473,-0.079291,0.163472,-0.092036,0.106022,0.086181,0.045888,-0.022381,-0.067947,0.000625,-0.085542,0.044425,-0.073624,-0.052509,-0.065142,0.062319,0.113477,-0.109785,0.051761,0.090551,-0.025409,-0.079524,0.134244,0.111574,-0.042567,-0.077887,-0.082200,0.123766,-0.080814,-0.041777,-0.004533,0.021977,0.010379,-0.050182,0.045470,-0.014206,-0.075555,-0.064030,-0.093605,-0.012848,0.030986,0.110195,0.031173,-0.054032,-0.013304,0.132167,0.119431,0.096562,0.030317,0.052312,-0.071593,0.057862,-0.022689,-0.090916,0.094716,-0.016708,0.013890,0.040843,0.012657,-0.073653,-0.053839,0.088167,-0.097745,0.029868,0.134911,0.012444,0.082361,-0.048069,0.026352,0.011660,0.131596,0.085096,0.094688,0.084457,-0.002527,-0.118369,-0.006194,-0.034758,-0.087417,0.000266,-0.094977,-0.020619,-0.062303,-0.018111,-0.047218,0.033519,0.062780,0.064490,0.185229,-0.076148,-0.085090,-0.085818,0.035682,0.065063,-0.187975,0.113677,-0.203198,-0.041624,0.041832,-0.110167,0.019861,0.011989,-0.068575,0.066928,-0.041553,-0.226223,-0.275560,-0.275715,0.140088,0.083173,0.050311,-0.018048,-0.473275,-0.472590,-0.000071,0.024519,-0.000906,0.114719,-0.335086,-0.076298,0.053202,0.098355,0.105006,-0.136639,0.100948,0.002644,0.011792,0.119857,0.014811,-0.027619,-0.053026,-0.049302,0.135590,0.064708,-0.073999,0.119795,0.008851,0.039987,0.127290,0.039881,0.000341,0.029434,0.037687,0.104999,0.082425,0.005852,0.027231,0.049105,0.051652,-0.020606,-0.050909,0.021031,0.076707,0.055962,0.023133,-0.019603,-0.111541,-0.023704,-0.087923,0.034546,-0.001279,0.068258,0.022661,-0.102152,0.060454,0.127227,-0.096902,0.102989,-0.024673,-0.033698,-0.098173,0.019114,0.053319,-0.003857,-0.068558,0.103670,0.089477,0.082574,0.109419,0.078884,0.029279,0.096652,0.047630,0.155085,-0.066564,0.018497,0.058799,0.031948,0.035275,0.053208,-0.132670,0.090679,-0.076832,0.131331,-0.112274,-0.012423,0.152742,0.008763,-0.090210,0.002896,0.029634,0.173971,0.165314,0.051011,-0.143883,-0.012134,0.118048,0.080264,-0.100069,0.076733,-0.076034,0.106320,-0.111319,-0.097096,0.046168,-0.072203,0.031980,-0.117539,0.031046,0.067346,-0.033722,0.036190,-0.028877,0.095846,-0.054018,0.079915,0.092187,-0.076355,0.055979,0.084991,-0.115974,0.067604,0.120682,-0.037200,0.083461,0.070697,-0.036951,0.093586,0.014763,0.063829,-0.092185,-0.051765,0.108690,0.017115,0.066754,0.113868,-0.110706,-0.064624,-0.098791,0.012993,0.050999,0.061320,-0.085294,0.105188,-0.112760,0.105943,-0.106677,-0.076098,-0.109888,0.123251,-0.093506,-0.024104,-0.024928,-0.063992,-0.021682,0.005540,-0.081352,0.034653,0.000505,0.130888,0.073110,0.092968,0.017185,-0.041548,-0.081829,-0.080099,0.054701,-0.039412,-0.055308,0.006603,-0.110527,0.040111,0.048772,0.031436,-0.063723,-0.049834,-0.127009,-0.008203,-0.052328,-0.082214,-0.049551,-0.140935,0.003489,0.098085,-0.050072,0.033550,-0.177397,0.201994,0.168134,-0.063035,-0.043071,-0.143446,0.170932,0.078729,-0.089008,0.098064,0.022943,-0.084426,0.019457,-0.096902,0.077019,-0.072838,-0.101528,-0.231046,-0.009460,-0.095636,-0.107093,-0.075711,-0.281300,0.066009,-0.092376,0.067599,0.035372,-0.176305,-0.002214,-0.194122,-0.067538,0.008261,0.004645,-0.005255,-0.018916,-0.040340,0.084786,0.135094,0.184039,0.144146,-0.007143,0.140656,0.133002,0.022853,0.123818,0.001938,0.049270,-0.128156,0.056805,-0.013109,-0.062430,0.007382,0.087639,-0.061480,-0.076595,0.115329,0.049171,0.107604,-0.027259,0.036905,-0.019852,0.091347,-0.028456,-0.048880,0.002535,-0.054533,0.033689,0.086945,0.041709,0.090737,0.020880,0.129224,0.041092,0.080713,-0.010424,-0.060242,0.030175,0.035067,0.066685,0.046324,0.100255,-0.100339,0.001575,0.019187,0.023143,-0.011253,0.039854,0.044955,0.131382,0.108582,0.013819,-0.098406,-0.006047,0.026522,-0.092250,-0.092738,-0.038138,-0.031195,-0.015675,-0.036563,-0.046598,0.078246,-0.104283,-0.092889,0.056301,0.123374,-0.107704,0.089143,0.027639,-0.060020,-0.043291,-0.086664,0.028260,-0.020531,0.033754,0.036639,0.112820,-0.049600,0.103092,0.077623,-0.101406,0.022644,-0.039689,0.072583,0.098933,0.089259,0.028280,-0.058292,0.015364,-0.075163,-0.059501,0.119747,0.005307,-0.011254,-0.070701,-0.125024,0.114589,-0.044756,-0.067945,-0.048548,0.016177,-0.016759,-0.016815,-0.085985,-0.072342,0.126131,-0.068806,0.070673,0.099220,-0.008120,0.024678,0.033085,-0.111078,-0.039832,0.096038,0.078751,0.031104,-0.117750,-0.074209,0.100343,0.086196,0.090812,0.089838,-0.026053,-0.056509,-0.000749,-0.064412,0.046129,0.085450,0.022720,0.084750,0.102599,0.013737,-0.014418,0.121720,0.012204,0.096359,0.029822,-0.023360,-0.054821,-0.003836,0.040117,0.100214,-0.045574,-0.030970,-0.071376,-0.037784,-0.098559,-0.079513,-0.116471,-0.026046,-0.008754,0.150506,-0.124723,-0.143490,-0.109899,0.128399,0.189696,-0.123684,0.159888,-0.138469,0.080976,0.015028,-0.092242,0.143087,-0.051587,0.002431,-0.090304,-0.153221,0.035294,-0.100562,-0.257222,0.011495,0.139592,0.036008,-0.148653,-0.359920,-0.285468,-0.007965,-0.002943,0.046741,-0.175166,-0.275501,0.084392,0.056857,0.038608,0.186827,-0.134008,-0.174158,-0.326350,-0.191880,0.085884,-0.111084,-0.311868,-0.269321,-0.015654,-0.014898,0.083595,0.112036,-0.009985,-0.069210,0.020246,-0.035442,0.047957,0.010468,0.034670,-0.066358,0.015469,-0.071564,0.100688,-0.103013,0.086764,-0.095178,-0.134911,-0.022089,-0.123596,0.071929,-0.070954,0.050305,0.111109,-0.034970,-0.024507,0.075688,0.071813,0.098644,0.071354,0.090606,-0.090433,-0.084153,-0.107649,-0.090162,0.087399,0.104649,0.002487,0.039884,-0.119704,-0.074052,-0.098197,-0.111978,0.037734,0.051522,0.006321,-0.016065,0.075335,0.104650,0.012437,0.081587,0.074469,0.040884,-0.053040,-0.052576,0.137009,0.019475,-0.116671,-0.124373,-0.134846,-0.023604,0.112384,-0.146219,0.084025,-0.066448,0.019650,-0.018133,-0.064502,-0.024947,-0.043168,-0.125956,-0.101273,0.083026,0.072662,0.105321,0.097722,0.045489,0.109633,0.084944,-0.123128,0.040119,0.103869,-0.128509,0.002294,0.029173,0.023185,0.118557,-0.000825,0.006784,0.097859,-0.030797,-0.057197,0.007280,-0.120187,0.005545,0.022389,0.007750,0.074238,-0.064970,-0.010892,0.054275,-0.118873,0.095532,0.031484,0.009869,0.008228,0.024911,0.075977,-0.084804,0.080972,0.112160,0.001494,-0.122463,0.098375,-0.117904,-0.085829,-0.054389,0.105198,0.061196,0.020632,-0.041891,0.080288,-0.011097,-0.027696,0.020449,0.056270,0.096057,0.082438,0.104644,0.061051,-0.069816,-0.043759,0.113906,0.029564,-0.058007,-0.045599,-0.078336,-0.059224,-0.003854,-0.128136,0.023995,-0.013085,0.012880,0.026787,0.078278,-0.013854,0.119058,-0.049580,0.015601,-0.104128,-0.075609,0.007449,0.013560,0.039809,0.108172,0.046272,-0.013788,-0.115045,-0.002331,-0.024431,-0.090393,0.063629,0.101376,0.050858,0.038630,0.069922,0.007273,0.160945,-0.178897,0.091153,-0.006718,0.011406,0.083722,0.036728,-0.077516,-0.016123,-0.097311,0.018370,0.143990,-0.110303,0.014310,-0.019923,0.032184,0.146675,0.045369,0.026753,0.095918,0.039386,0.127132,-0.018887,0.134372,0.005399,0.008686,-0.141943,-0.027927,0.122235,0.046966,0.064122,0.003227,0.077494,0.068785,-0.069720,-0.139742,-0.061470,-0.075306,-0.033274,0.006994,0.053173,0.017973,0.017893,-0.095242,0.067472,-0.058764,-0.050182,0.016943,-0.023224,0.026088,0.112743,0.003837,-0.043268,0.091868,-0.034561,-0.115986,0.083596,0.138050,-0.067730,-0.067336,0.070345,-0.076159,-0.090919,0.036678,-0.035803,0.006954,-0.045664,-0.111595,-0.117805,0.027331,-0.000795,0.077721,-0.072475,-0.026876,-0.014909,0.105940,0.118116,-0.035596,0.072135,-0.051699,0.014430,0.015826,0.042972,0.055787,0.021668,-0.080964,0.135020,-0.049921,-0.002678,-0.146195,0.000165,-0.118623,0.063280,0.043511,-0.119970,-0.044385,-0.065562,-0.082206,0.030429,0.128515,0.044657,0.059295,-0.013635,0.148985,0.138259,-0.030933,0.141217,0.135047,-0.055145,-0.098845,-0.127974,-0.002052,-0.052430,0.087373,-0.010326,0.056080,0.009567,-0.082386,0.101682,-0.096489,0.010168,0.058667,-0.042731,-0.125010,0.066300,0.069115,-0.096788,-0.000225,-0.070589,0.073703,0.068756,-0.002825,-0.068418,-0.030536,0.003630,0.058038,0.091565,-0.089976,0.004882,0.011131,0.098803,-0.119426,0.068389,-0.019362,0.103921,-0.094279,-0.031902,-0.022454,-0.054698,0.004253,-0.064724,-0.073142,-0.104731,-0.037150,-0.000586,-0.032408,0.040853,0.043308,-0.099680,-0.045758,-0.116540,-0.079495,0.075962,-0.037851,0.058858,0.092954,-0.087074,0.078713,0.066935,0.015036,-0.014328,-0.100983,-0.061963,-0.071539,-0.052241,-0.046613,-0.079302,-0.017786,-0.104947,0.126135,0.096920,0.093911,-0.020425,-0.027311,0.152415,0.159734,-0.005031,-0.141129,0.046033,0.124031,-0.056769,-0.001007,0.110415,0.044405,-0.124976,-0.118331,0.091701,-0.173807,0.000079,0.016924,-0.083654,0.005052,-0.218520,-0.004281,0.074405,-0.035013,-0.208604,-0.133755,-0.180135,-0.062336,0.045730,0.127406,0.206740,-0.008167,-0.140877,0.092302,0.100952,0.122441,-0.065558,0.100591,0.058953,0.084171,0.140245,-0.076654,0.105153,0.120815,0.336829,0.030146,0.022535,-0.079040,0.182836,0.094871,0.241586,0.020798,-0.021140,0.008450,0.058065,-0.084459,0.011263,-0.030906,-0.080378,-0.019595,-0.017180,-0.042367,-0.076323,-0.035117,-0.013468,0.082600,-0.043737,0.064807,-0.050116,0.096102,0.116881,-0.082076,0.138429,-0.081190,0.116692,0.054891,0.039734,0.111233,0.085537,-0.026974,0.015677,0.107377,0.041029,0.126654,-0.054222,0.034158,0.026419,-0.039647,0.082054,0.083518,-0.023334,0.045675,0.053319,-0.074888,-0.105307,-0.039637,0.073480,-0.095842,0.124479,-0.106910,0.128538,0.010979,-0.051990,-0.056865,0.047485,-0.003986,-0.174417,-0.100926,0.004165,-0.174860,-0.020399,-0.112819,0.031176,-0.021401,0.072975,0.149647,0.043677,-0.103669,0.036437,-0.011945,0.113250,-0.059919,-0.002006,-0.089653,-0.014090,0.018677,0.016140,-0.085891,0.133046,-0.070094,-0.085419,0.124462,-0.046514,0.087356,-0.057564,0.081953,0.072264,0.075852,0.046203,-0.079414,0.011094,0.026680,0.065376,0.107270,-0.076707,0.028963,-0.093574,0.087865,-0.039439,-0.056038,-0.033532,-0.100169,-0.047009,0.023354,-0.059140,-0.082589,-0.064707,-0.056259,0.082315,-0.045019,0.051256,0.087208,-0.074277,-0.005375,0.039166,0.018214,-0.104544,0.030565,0.018944,-0.022150,0.028419,-0.092821,-0.082545,-0.025747,-0.048776,0.049121,-0.070596,0.121584,-0.002327,0.008590,-0.016390,0.121066,0.135294,0.097445,0.087384,0.086143,0.075791,-0.072737,-0.071631,0.003152,0.004008,-0.096987,0.101902,0.094589,-0.103176,0.106274,-0.051103,-0.024369,-0.003729,-0.047737,0.058153,-0.065379,-0.040539,-0.095222,0.010896,0.084092,0.040062,0.020687,-0.074511,0.019394,0.035601,0.061455,-0.078643,0.042740,-0.023208,-0.022020,-0.081052,0.042432,-0.087667,-0.048514,-0.144466,0.132845,-0.120672,-0.126034,-0.228104,-0.201250,0.005908,0.171454,0.022922,-0.153842,0.030600,-0.338419,-0.340209,-0.017101,-0.077678,0.101022,0.071662,-0.190342,0.031959,0.052747,0.113220,0.051852,-0.140241,-0.018841,0.207469,0.188663,-0.024201,-0.067452,-0.044432,0.146062,0.098925,0.079311,-0.010324,-0.048025,0.078001,0.110673,0.032471,0.007812,0.083258,-0.134195,-0.112716,-0.134345,0.094647,0.080288,-0.119760,-0.166111,0.024423,0.077168,-0.074647,-0.129018,0.059809,0.127726,-0.029440,-0.123955,0.115025,-0.030755,-0.013526,0.044317,-0.045046,0.009506,0.021488,-0.018349,0.117037,0.014669,-0.055133,-0.062096,0.114794,-0.082604,-0.106296,0.045040,0.021924,0.003762,0.071109,-0.062437,-0.025440,0.036907,-0.096944,0.053364,0.083058,0.069857,0.002066,-0.087941,0.026082,-0.104568,-0.000519,0.027829,0.067448,0.078333,0.009342,0.002973,-0.155740,0.058323,-0.127917,-0.173259,0.101633,-0.063123,0.024272,0.041822,0.104360,0.140140,-0.020336,-0.102726,-0.100674,-0.031218,0.108260,0.017591,0.063574,0.013446,0.010031,0.045185,0.022261,0.034691,0.058040,0.089243,0.063694,0.082443,-0.059311,-0.095804,-0.108306,-0.022586,0.037234,-0.006974,-0.011044,0.062509,-0.102456,-0.049979,-0.060178,-0.008544,-0.117681,-0.050479,0.107476,0.012312,-0.032012,0.108929,-0.015336,-0.034221,-0.112619,-0.107594,0.056127,-0.074163,0.001832,-0.003049,-0.030565,0.057383,0.006441,0.075323,0.041925,-0.072714,0.053381,-0.043222,-0.122858,0.080922,-0.011962,-0.118524,0.104260,0.021036,-0.055498,0.111853,-0.114304,0.095844,-0.113327,-0.007743,-0.066942,0.038812,-0.086967,-0.085528,-0.107045,-0.015788,-0.093255,0.052859,-0.022817,-0.000131,0.015900,-0.107641,0.105804,-0.126776,0.112603,-0.052710,0.049633,-0.002008,0.022639,-0.129917,-0.093221,0.060652,0.115362,-0.129602,0.078489,-0.100102,-0.121611,-0.116618,0.074981,0.001066,-0.077354,0.018046,-0.152300,0.036431,-0.153893,-0.136981,0.085786,-0.043579,-0.103485,-0.138741,-0.008376,-0.113582,0.060656,0.085452,0.051002,-0.037705,0.011506,-0.088871,-0.053466,0.086717,0.169279,0.110124,0.147298,0.125719,0.001724,0.255589,0.155852,-0.007787,0.107715,-0.028359,0.164996,0.154764,-0.021820,0.124491,0.054580,-0.082490,0.112384,0.013245,0.173705,-0.050712,-0.087413,-0.013058,-0.001342,-0.047371,-0.160642,-0.005228,-0.171170,-0.098777,0.050489,-0.039970,0.071387,0.094527,-0.025183,0.054246,0.044323,-0.082380,0.111155,0.093424,-0.021822,-0.039506,0.019954,0.103168,0.061265,-0.087024,0.090917,-0.039697,-0.118404,-0.012999,0.044451,-0.099976,-0.004873,0.070029,0.112944,-0.041510,-0.007854,-0.023273,0.024519,-0.015543,0.114945,-0.103767,-0.056148,0.042365,-0.009916,0.088712,-0.028597,-0.100901,-0.003524,0.019014,0.029427,-0.032173,0.031345,0.028556,-0.019876,0.148272,-0.003911,0.131315,-0.055120,-0.048621,-0.037354,-0.021612,0.089197,-0.087233,0.132465,-0.102520,0.093849,0.036699,0.074133,0.090458,0.047636,0.076190,0.086959,-0.114337,-0.199004,-0.024844,0.037678,0.068059,-0.045919,0.089827,-0.122537,0.097310,0.058946,0.104958,-0.002238,-0.052743,-0.010682,-0.028700,-0.074058,-0.115751,0.042608,-0.069662,0.105842,0.103472,0.097490,-0.030064,0.068893,-0.065496,-0.123263,0.055362,-0.079407,0.009913,0.100501,0.005915,-0.107696,0.070842,-0.017074,-0.131894,-0.031491,-0.043250,-0.037048,-0.047728,-0.063057,-0.000208,0.077775,0.022484,0.107206,0.096452,-0.067979,-0.065279,0.052724,-0.017869,0.018485,0.057720,0.021575,0.102996,-0.018918,0.115348,-0.054901,-0.086834,-0.061828,0.064984,0.089519,-0.096887,-0.035477,0.110756,-0.106979,0.004248,-0.059645,0.030588,0.094403,-0.026316,-0.104521,-0.070445,-0.089502,0.120664,0.041346,-0.089638,-0.092314,0.060830,0.093906,0.146039,-0.053397,-0.081726,0.109911,-0.165698,0.107717,-0.065533,-0.092457,0.180472,-0.064207,0.040263,0.090920,-0.050816,-0.063676,-0.137383,-0.074269,0.082077,-0.069359,0.087351,0.011009,0.026074,0.102657,-0.053537,-0.023415,-0.012303,0.177192,0.047555,-0.196101,-0.295079,-0.017664,0.162271,0.208333,0.066257,-0.247833,-0.339914,0.053779,0.351615,0.324890,-0.248592,-0.115377,-0.043990,-0.116793,-0.140911,-0.053783,0.034391,-0.107180,0.002903,0.070512,0.128791,0.020348,-0.086604,0.108620,-0.033168,0.133055,0.099218,0.098868,0.075185,-0.026221,0.095220,-0.061661,-0.107800,0.058803,0.002231,-0.050275,0.117881,-0.032560,0.001378,-0.002439,0.049775,0.030017,0.071558,0.105832,0.123922,-0.112852,0.019190,0.113784,-0.055563,0.059469,-0.054519,-0.023436,-0.103573,0.126426,0.125470,0.016932,0.061902,0.099603,-0.113380,-0.033579,0.056256,-0.069184,-0.077395,-0.018480,-0.086635,0.025319,0.109650,-0.031126,-0.026947,0.078279,0.002300,0.021615,0.111909,0.060569,0.092248,-0.041388,-0.077965,-0.129127,-0.003146,-0.002499,-0.099128,-0.118155,-0.000892,0.022613,0.089541,-0.029059,0.059668,0.023745,0.043630,0.076829,0.083840,0.079485,0.057170,0.107553,-0.010527,0.015549,0.135523,-0.080865,0.083760,0.020880,-0.062065,0.050259,-0.056272,-0.113517,-0.090666,0.026206,-0.085932,-0.056123,0.091564,0.036034,0.045991,-0.003348,-0.108994,0.001196,-0.072748,-0.048859,-0.017733,-0.097886,-0.087975,0.041811,-0.016992,0.007700,-0.030463,0.110382,-0.064604,-0.086022,-0.072384,-0.111099,-0.106837,0.055878,-0.085068,0.086372,-0.010554,0.030144,0.068640,-0.047424,-0.055665,0.067871,0.085556,0.092463,-0.034750,0.046021,-0.101184,-0.098953,-0.018712,-0.065707,-0.076220,0.013125,-0.080413,0.120788,-0.001097,0.081868,-0.029030,0.058147,-0.055943,-0.065662,-0.059395,-0.017819,-0.000898,0.071715,0.099843,-0.100843,0.043396,-0.053194,0.108572,0.116781,-0.050572,0.051205,0.068720,-0.100843,-0.046541,-0.062917,-0.026012,0.060884,0.063995,-0.087434,0.119278,-0.024551,0.096464,0.061065,0.034967,0.101867,-0.070655,0.007524,-0.073778,0.021293,-0.101867,0.023791,0.054897,-0.067844,0.073073,-0.010100,-0.042661,-0.079449,-0.140740,-0.028066,-0.057063,0.068239,0.125060,-0.068663,0.033379,-0.013600,-0.104914,-0.205341,0.050205,0.141801,0.035253,0.086186,-0.265059,-0.104110,0.148729,0.042978,0.024189,-0.047819,-0.086196,0.128696,0.113614,0.141431,-0.000685,0.012462,-0.010074,0.007606,0.003265,0.039450,-0.040401,-0.095115,0.069093,-0.127522,-0.141829,-0.094180,-0.057721,0.032954,0.098368,0.029677,0.035445,0.112960,-0.034743,0.080556,0.016263,0.054368,-0.072925,-0.020343,0.039515,0.098383,-0.115035,-0.125811,0.118002,0.078167,-0.062027,0.124696,0.017868,0.058370,0.052717,-0.067605,0.097015,0.061182,0.090217,-0.109913,0.094868,-0.040678,0.113955,0.064718,-0.126331,0.095384,0.001517,-0.104214,-0.105229,-0.007895,-0.026795,-0.004607,-0.056312,0.107338,-0.094882,0.038297,0.020121,-0.045141,0.097098,-0.100377,0.038396,0.044427,-0.128839,0.072075,0.091880,-0.019324,0.037877,-0.056115,0.004040,-0.052127,-0.035018,0.132094,-0.099401,-0.082565,0.216316,0.079228,-0.002479,-0.090637,-0.058844,0.049387,-0.102138,-0.048827,0.090780,-0.007901,0.099103,0.094010,0.001631,-0.018731,0.064933,0.058791,-0.033867,-0.048904,0.051419,-0.033629,0.089449,0.122024,0.104174,0.110014,0.121453,-0.037055,0.095740,-0.021438,-0.107184,-0.070642,0.095814,-0.097627,0.085754,-0.111482,-0.002240,-0.016233,-0.045106,0.015955,0.123294,0.025221,0.056284,-0.115694,-0.083277,0.040789,0.101342,0.064642,-0.012066,0.009859,-0.103224,0.020621,0.102641,0.121217,0.045752,-0.098075,-0.006716,-0.052403,-0.128661,0.088622,0.029745,0.117929,-0.010089,-0.108967,-0.022000,-0.059194,0.068121,0.041334,0.080867,0.032374,0.059873,-0.032309,0.065348,-0.077131,0.042072,0.022722,-0.111569,-0.048992,0.048035,-0.080796,-0.106596,-0.073301,0.117605,0.061840,0.017506,0.001088,-0.157985,0.148020,0.009867,-0.059503,0.083803,0.033566,-0.044914,0.034975,-0.207135,-0.108917,-0.082957,-0.176664,-0.071995,0.006539,0.027813,0.013634,-0.119922,-0.023473,0.030153,-0.019308,-0.150549,0.157388,0.133098,-0.203487,-0.173060,-0.130453,0.169533,0.075328,0.093223,-0.270119,-0.239528,0.146197,0.211793,0.028677,-0.157429,-0.153754,-0.039305,0.144781,0.186714,0.019870,-0.049603,-0.221047,0.164417,0.172983,-0.028240,0.084506,0.106035,0.012938,0.028361,-0.073296,0.113908,0.001956,0.062118,0.103005,-0.111750,0.094690,0.042053,0.052637,-0.059020,-0.054348,0.038334,0.148892,-0.064439,0.053077,0.120713,-0.040951,0.060200,0.021301,-0.020950,-0.117665,0.076339,0.056550,0.070711,-0.078542,0.097252,0.100756,-0.046000,-0.025861,-0.068226,0.088506,-0.033593,0.124127,0.030017,0.021757,0.002741,0.099862,-0.019268,0.054564,0.058592,0.042893,-0.001615,0.022035,0.100483,0.087343,-0.055515,0.095538,-0.013070,-0.062185,0.103017,0.024785,0.113044,-0.069533,-0.070999,0.090054,-0.158725,0.106821,-0.050965,-0.048696,-0.016404,0.118701,-0.011382,0.023689,-0.061312,-0.082349,-0.014999,0.143995,-0.087059,-0.090374,-0.044787,-0.114185,-0.116727,-0.087812,0.060153,-0.082529,-0.070681,-0.048586,0.106961,0.077270,0.079180,0.059812,-0.045291,-0.095183,-0.101490,0.069088,0.107151,-0.052397,-0.109168,-0.000876,-0.113075,0.036560,-0.108918,-0.088587,0.119795,0.103812,-0.023143,0.020090,0.036156,0.025492,0.093921,-0.103664,-0.092074,0.018799,0.071288,0.023802,0.005967,0.072403,0.109946,-0.106606,0.046660,0.028380,0.069342,0.015902,0.125087,0.108318,-0.008427,-0.066683,-0.050718,0.040951,0.015355,0.018702,0.085312,0.087932,-0.063754,-0.076837,0.026383,0.022708,0.114817,-0.064788,-0.117617,-0.126713,0.075116,0.032108,0.131569,0.122244,0.029573,-0.073339,-0.034090,0.022353,0.060900,-0.069625,-0.080484,-0.113807,-0.074825,0.014324,-0.016695,-0.069229,0.155424,0.075760,-0.091803,0.083554,-0.167897,0.091360,0.165982,0.075244,0.177020,-0.112988,0.066304,-0.021615,-0.191935,0.114710,-0.149781,0.018224,-0.091035,0.049829,0.145630,-0.169072,0.063642,-0.079653,-0.064968,0.093882,-0.037458,-0.058868,0.161480,-0.068378,-0.144245,0.027375,-0.111381,-0.170724,0.028981,0.020223,-0.115564,0.111660,0.011659,0.138770,0.010725,-0.103921,-0.033501,-0.103977,0.040023,-0.089320,0.080474,-0.179147,0.132608,0.021569,0.101439,-0.074865,-0.075779,-0.059087,0.032269,-0.043631,0.107078,-0.045840,-0.112720,-0.109533,-0.001385,-0.108094,-0.124466,-0.054168,0.037860,-0.055938,-0.043484,0.113572,0.094616,0.035876,-0.079856,-0.075200,-0.088716,-0.099480,0.038313,-0.067561,0.059275,0.054129,-0.119928,-0.103483,-0.115479,-0.118123,0.036104,0.041483,-0.124000,-0.089999,0.107980,0.099442,-0.081478,0.083121,-0.054922,-0.013944,-0.010160,-0.072586,0.100781,-0.117904,-0.100733,-0.095001,-0.126354,-0.050861,-0.012180,-0.090382,0.115151,0.078572,0.102171,0.095193,0.001273,-0.051011,-0.075623,-0.101853,-0.028826,-0.131246,0.109073,0.068400,-0.046979,-0.072096,0.060859,-0.098123,-0.143702,-0.085707,0.081514,0.121773,-0.005561,-0.040513,0.091516,0.030760,0.084087,0.104529,0.092844,0.033858,0.077223,-0.003183,-0.058258,-0.050796,0.025789,-0.114586,-0.070071,0.053027,0.006978,-0.066501,0.032636,-0.114633,-0.055328,-0.008108,-0.071679,0.086542,-0.035151,-0.093299,0.102297,-0.027995,-0.015745,0.116522,0.024084,-0.041965,-0.052995,0.024204,0.084202,0.028134,-0.048806,-0.046107,-0.033799,0.114307,0.089736,-0.052284,0.023299,0.032806,0.008704,-0.062067,0.011941,-0.044330,-0.018503,0.047468,0.021054,-0.017768,-0.119590,-0.062791,-0.009053,0.065922,-0.045192,0.002096,0.032669,0.099910,-0.099239,0.103683,-0.064311,0.095417,-0.010548,0.037381,0.111619,0.060317,-0.063187,-0.073114,0.007251,-0.083607,0.068348,-0.003303,-0.015063,0.012581,-0.021036,0.034653,-0.125245,0.069246,0.010682,0.011308,0.086662,-0.092381,0.022558,0.003518,0.081661,-0.077569,0.087091,-0.112437,-0.131364,0.013765,-0.021122,0.121656,0.050715,0.146004,0.075014,0.069503,0.053324,-0.081180,0.014143,0.065282,0.054643,-0.061774,0.096226,-0.057214,0.059407,0.046931,0.125764,0.006014,0.007234,-0.102604,-0.087459,0.096826,-0.067332,-0.148174,-0.078705,-0.090103,0.092332,-0.041396,0.136291,0.082834,0.019638,-0.077327,0.024547,0.032872,0.046665,-0.055898,-0.003076,-0.073111,0.233472,0.133551,-0.304269,-0.233712,-0.177357,-0.085101,-0.790381,-1.146566,-0.241471,-0.171747,-0.368847,-1.132575,-0.798455,0.119404,-0.224530,-0.297311,-0.147148,-0.477455,-0.301125,-0.428023,0.235882,0.057157,0.485456,-0.107303,-0.065201,-0.000020,-0.443231,-0.118317,-0.285233,-0.081762,-0.010356,0.025284,-0.321579,0.135232,-0.029282,0.180846,0.836578,-0.330896,0.357702,0.318845,0.031876,0.633890,0.539770,0.463006,0.209224,-0.136924,0.187019,-0.077763,0.470073,-0.003999,0.004376,0.099182,-0.140759,-0.206954,-0.339815,0.283260,0.519613,-0.098645,-0.338038,0.023034,0.361746,0.120758,-0.277323,-0.228274,0.177246,-0.153475,-0.245537,-0.491144,0.096638,0.365769,0.030273,-0.128189,-0.122916,-0.240863,0.440319,0.179195,0.064783,0.424376,0.359659,0.157393,0.034872,0.351154,0.054750,0.256409,0.205347,-0.473178,0.480989,0.473876,0.114427,-0.277084,-0.395347,0.137341,0.349502,0.129898,-0.379282,-0.403352,0.122634,0.221111,0.368785,0.233344,-0.423268,-0.062680,-0.150439,-0.182177,-0.163673,-0.193496,-0.112126,-0.425737,0.188753,0.221915,-0.228398,0.162378,0.129484,-0.172012,0.203245,-0.165870,-0.429004,-0.659096,-0.378577,0.009015,0.032322,-0.265460,-0.257456,-0.052455,0.037025,-0.010119,0.000343,-0.223939,-0.390054,-0.166966,0.365386,0.341571,0.179568,0.113456,0.039021,0.534262,-0.214942,0.176896,0.077708,0.131521,0.052990,-0.477912,-1.031689,-0.308720,-0.028976,-0.580319,-0.068798,-0.527910,-0.093817,-0.066049,-0.255706,-0.099572,-0.045906,0.192810,0.165866,-0.363989,-0.224087,-0.314637,-0.154653,-0.029578,-0.297500,-0.173660,0.156524,-0.422451,0.104869,-0.025048,0.113962,-0.200185,-0.599447,0.052898,0.224419,0.109304,-0.153859,-0.250607,-0.024485,-0.163281,-0.309524,-0.579436,-0.450822,-0.075507,0.282608,0.274727,-0.108411,-0.107925,-0.117443,0.247954,0.418610,0.019557,-0.176527,0.190605,0.051992,-0.112535,0.039444,-0.017073,0.271151,0.223497,-0.105361,0.349696,0.228514,0.419855,0.139419,0.050022,-0.019318,0.295199,0.103649,0.213171,0.177959,0.164426,0.363248,0.120670,0.195523,0.250988,0.399793,-0.178235,0.224086,0.049334,-0.378385,-0.018258,0.268794,0.142346,-0.275049,-0.411773,-0.148761,0.310349,0.082792,-0.182409,0.299903,0.527806,0.312379,0.016107,-0.336503,-0.067013,0.004591,0.188939,0.373888,-0.243600,-0.578587,-0.251248,-0.111018,0.301259,0.286924,-0.391800,-0.494665,-0.083349,0.224028,-0.087831,-0.000386,-0.321730,-0.081651,0.098450,-0.152338,-0.171331,-0.116510,0.332326,0.183499,-0.153642,-0.708932,-0.297745,0.388333,0.140488,0.367988,0.117620,0.314946,0.154927,-0.102996,0.706437,0.524071,0.450429,0.195455,-0.021900,-0.104468,0.384258,0.293507,0.262542,-0.092063,-0.151132,-0.116494,-0.194423,-0.321143,-0.334686,-0.183580,-0.713176,-0.366494,-0.196620,0.152006,0.145103,-0.601798,-0.431641,-0.181078,0.234866,0.361767,0.056147,-0.073698,0.192494,0.182073,0.306394,0.024253,-0.018187,-0.156384,-0.124720,0.172224,0.153868,0.166479,0.014239,-0.081997,0.091047,-0.000892,0.502507,0.056948,-0.146472,0.243373,-0.056512,0.248016,0.344389,0.080112,0.280509,0.426462,0.604286,0.178080,0.038504,0.062924,-0.037382,0.157316,0.222999,0.167027,0.090457,-0.025119,-0.489185,-0.303649,-0.076172,0.190581,-0.307277,-0.435987,-0.291172,-0.219326,0.092076,-0.065312,-0.074997,0.040083,-0.165402,-0.095493,0.395812,0.905847,0.212186,0.157203,0.290889,0.382270,0.300741,-0.142842,-0.096514,0.159727,0.168220,0.369321,-0.064918,-0.022111,-0.012820,0.576305,0.510099,0.286614,0.249449,-0.083791,0.327095,0.215376,0.397451,0.194614,0.108440,-0.013049,-0.116330,0.021215,0.113415,-0.040923,-0.036124,-0.083539,0.079444,-0.111613,0.182644,0.135340,0.453916,0.374286,0.029892,-0.039437,-0.397460,0.066082,0.270216,0.113505,-0.050099,-0.432429,-0.057529,-0.253087,-0.211649,0.342931,0.280993,-0.047882,-0.234161,-0.419289,-0.287385,-0.008619,0.101733,-0.101799,-0.026412,0.143424,-0.062533,-0.062793,-0.057014,0.199904,-0.057109,-0.563939,0.074540,-0.029291,-0.041408,-0.371587,-0.508240,0.020575,-0.205764,0.178974,-0.264969,-0.348765,-0.163919,0.026687,0.289332,-0.007406,-0.080097,0.017803,0.192026,0.045795,0.138922,0.039500,0.198298,0.011811,0.119856,0.072969,-0.051345,0.339577,0.150952,0.208901,0.273029,0.282160,0.259855,-0.030421,0.146667,0.102192,0.129065,0.180111,0.258683,0.013903,-0.242275,-0.303127,0.202932,-0.086148,0.218394,-0.399701,0.078054,-0.056429,0.126664,0.076820,-0.101343,0.079306,0.251904,0.090598,-0.116232,0.411527,0.409397,0.633336,0.280790,0.055968,-0.423025,-0.077475,0.231154,-0.176533,-0.038591,-0.222133,0.065520,0.011443,-0.004760,0.007823,0.186878,-0.080697,-0.406712,-0.260964,-0.065493,0.175428,0.139592,-0.289878,-0.238929,-0.161047,0.662838,0.723936,0.047737,-0.039049,-0.279015,0.208169,0.540992,0.315361,0.087073,0.204740,0.275486,-0.161411,-0.313238,0.001044,0.135244,0.191995,0.340690,0.040125,-0.148590,-0.059354,0.062921,-0.058224,0.255201,0.030437,0.140085,-0.228503,0.028162,0.174983,0.107503,-0.101871,-0.246606,-0.182354,-0.163001,-0.279440,-0.169746,-0.073596,-0.074015,-0.052698,0.130199,0.234769,-0.060763,-0.062441,0.186602,-0.339676,-0.107680,0.070198,-0.390656,0.404136,-0.192481,-0.144088,0.261701,-0.199149,0.189875,0.072754,-0.091353,0.040244,-0.211144,-0.110931,0.180333,-0.018992,-0.050407,-0.029081,0.132739,0.083092,-0.229148,0.363630,0.179007,0.257409,0.057642,0.000210,-0.019891,0.490826,0.386112,0.383426,-0.131930,-0.260405,0.564623,0.375109,0.448657,-0.151186,-0.349571,0.221871,0.283758,0.050127,-0.132023,0.314712,-0.128520,-0.438754,-0.100328,0.045633,0.122527,0.527092,0.207666,0.248457,0.113963,-0.100271,0.480635,0.012859,-0.076939,0.045421,-0.345676,0.209596,-0.232051,-0.462638,-0.219119,-0.616707,-0.648625,-0.370331,-0.606619,-0.303513,-0.168185,-0.420029,0.061546,0.134383,-0.013859,0.023454,0.108881,-0.169795,-0.039819,0.072191,-0.012430,0.924262,0.520953,0.101105,-0.176790,0.293545,1.143913,0.264057,0.022795,-0.065794,0.283151,0.984148,0.280667,-0.090744,-0.161384,-0.157080,0.323784,0.240142,-0.029523,-0.081592,0.094018,0.397262,-0.033640,-0.047578,-0.229487,0.270619,0.535308,0.606767,-0.162640,-0.316626,-0.207336,-0.373459,0.499935,0.142723,-0.124262,-0.079080,-0.487862,-0.270283,-0.015178,0.061208,0.058498,-0.280903,0.003401,0.160132,0.038480,0.355918,0.127653,0.044637,-0.194855,0.103845,0.337783,0.318796,-0.171643,-0.186860,0.026950,-0.480695,-0.625027,-0.866039,-0.177971,0.390807,-0.856669,-1.034805,-0.637697,-0.105290,0.147844,-0.452488,-0.965142,-0.456676,-0.091944,0.063945,0.046920,0.029813,0.299524,0.418326,0.324728,0.039416,-0.093722,-0.459197,-0.189198,0.296122,-0.239461,0.353159,-0.163391,0.058843,0.170314,-0.578924,0.358449,0.091902,-0.185785,-0.237152,-0.103687,0.334841,0.158311,0.128138,0.004082,-0.298926,-0.186406,-0.024099,-0.226362,-0.065287,-0.239425,0.086799,0.034378,-0.347219,0.017651,-0.023748,0.097283,-0.133518,-0.202846,-0.187449,-0.172501,-0.168762,-0.581117,-0.398342,-0.096913,-0.124568,-0.104833,-0.463054,-0.787524,-0.038646,0.029516,-0.395680,-0.580151,0.340294,0.216720,0.176120,-0.208095,-0.150660,0.167090,0.295039,-0.028900,0.418152,0.098948,0.187720,0.129193,0.230093,-0.719517,-1.015704,-0.174440,0.008944,-0.032363,-0.437025,-0.171372,0.262562,-0.034338,0.131086,-0.079953,-0.027836,-0.062231,0.151482,-0.163106,-0.712078,-0.382844,-0.329888,0.073434,0.034138,-0.755105,-0.559604,-0.298646,-0.039033,-0.040268,-0.103326,-0.282188,-0.190429,-0.391394,0.393052,0.325258,0.131786,-0.295277,0.117907,-0.326084,-0.462060,-0.283722,-0.369673,-0.124959,-0.362059,-0.198257,-0.250073,-0.051048,-0.264629,0.119156,0.259214,0.497180,0.271058,0.077307,-0.021945,0.158492,0.516409,0.322231,0.086861,0.164763,-0.031355,0.162030,0.078879,-0.065775,0.027918,-0.142066,0.218888,-0.106221,-0.003581,-0.316514,-0.165318,0.345885,0.144270,0.083124,-0.318364,0.129188,-0.430412,-0.067759,0.438314,-0.396095,-0.369400,-0.185164,0.361148,0.525137,-0.429140,-0.462705,0.328712,0.682902,0.520660,0.428395,0.304997,0.313801,0.045509,0.019109,0.060741,0.232742,0.562207,0.565306,0.130168,-0.204418,0.347505,0.392662,0.472720,-0.292545,-0.154662,-0.013312,-0.198908,0.074490,-0.320940,0.003967,-0.046689,-0.091751,0.044749,-0.089512,-0.274624,-0.156444,-0.047260,-0.094669,0.151122,-0.084447,0.371897,0.498383,0.246753,-0.180692,0.119142,0.357670,0.860392,0.479895,-0.159654,0.223643,0.179665,0.403158,0.071781,-0.231505,0.320324,0.376146,-0.049050,0.110736,-0.069971,0.380912,-0.364994,-0.451253,-0.270260,-0.009559,0.219688,-0.202148,-0.197538,-0.624181,-0.674784,0.500474,0.204443,-0.069285,-0.149549,-0.391744,0.411948,0.325918,0.506233,-0.013938,0.181555,0.143272,-0.395106,-0.452704,0.041832,0.144117,0.556639,0.602523,0.223083,0.133548,-0.002194,0.460709,0.381012,0.419806,0.111676,0.023874,-0.105066,-0.128682,0.305845,0.075311,0.049106,-0.342608,0.088058,0.156266,-0.026037,0.088581,-0.133373,0.210189,0.353738,0.188147,0.254239,-0.266302,-0.096795,-0.097203,0.218889,0.304708,-0.465788,-0.115396,-0.073628,0.029658,0.244754,-0.343545,0.019424,0.146910,0.375830,0.240076,-0.171822,-0.031623,0.589156,0.653285,0.087797,0.107682,-0.135828,0.190188,0.240705,-0.267610,0.104146,0.423778,0.331707,0.321574,-0.047863,0.198023,0.216326,0.418792,0.458900,0.051276,0.023961,0.247993,0.524154,0.513634,0.458283,-0.033477,0.400317,0.111664,0.173972,0.274451,-0.534167,-0.426437,-0.464216,0.162625,-0.161472,0.397255,0.787468,0.444804,0.259112,0.015033,-0.115736,0.065083,0.200277,-0.083652,0.082841,-0.226934,-0.627982,-0.555032,-0.555002,0.214821,-0.687431,-1.031072,-0.439758,-0.926470,-0.542876,-0.282308,-0.728413,-0.513176,-0.455911,-0.342260,-0.198599,0.118620,0.163559,0.345196,-0.102638,0.022892,1.034159,1.450509,0.442978,0.273593,0.560100,0.646780,0.135936,0.206418,0.056395,0.206696,-0.490389,0.374352,0.237337,0.201955,0.082522,-0.350403,-0.090203,-0.112143,0.143853,0.133061,0.200488,-0.285783,-0.110919,0.317682,-0.269810,-0.123632,0.705070,0.199957,-0.102329,-0.582075,-0.352831,0.796612,0.095894,-0.434661,0.033315,0.534814,-0.013734,-0.278341,-0.146174,0.045823,0.381056,-0.275531,-0.236411,-0.125157,0.052316,0.234791,0.150258,-0.001412,0.025711,-0.181141,0.375333,1.303055,0.236971,0.116105,-0.639948,-0.493106,0.216699,0.528624,-0.052452,0.464115,0.484302,0.098941,-0.013872,-0.016270,0.347376,0.702168,-0.090762,0.261996,-0.284269,-0.177671,0.265933,-0.606069,-0.160799,-0.392189,0.062302,0.695892,1.063848,0.221614,-0.615858,0.559690,0.329451,1.033066,0.030155,-0.107911,0.384676,-0.181881,-0.262707,-0.225133,-0.310236,0.194712,-0.413911,-0.235788,-0.406402,-0.261886,0.243210,0.164469,0.294944,0.233421,-0.068837,-0.005943,0.258403,-0.057571,-0.425435,-0.494274,-0.609458,-0.099476,0.228292,0.061203,-0.294971,0.050947,0.635239,0.620831,0.163329,-0.440584,-0.018247,-0.025972,0.207984,0.406746,-0.120973,0.268383,0.083152,0.839968,0.441530,-0.073395,-0.321994,0.499267,0.880517,0.199511,0.025536,-0.466914,-0.260645,0.065810,-0.283248,0.046732,-0.270589,0.107946,0.682212,-0.051637,0.211460,0.216827,0.247876,0.194680,-0.185757,0.056867,-0.500491,-0.311973,-0.168590,-0.032359,-0.041798,0.070560,-0.468543,-0.477123,-0.154344,-0.032425,0.444023,0.242349,-0.355922,-0.010311,-0.139518,-0.154485,0.391370,0.144781,0.326089,0.027787,-0.218208,-0.186660,0.255850,0.201227,0.319638,-0.128258,0.383278,0.479137,-0.042980,0.081919,0.176378,0.645985,0.278971,-0.040857,0.226021,0.245941,-0.112832,-0.868306,-0.121545,0.059474,-0.875011,-0.635868,-0.996245,-0.659127,-0.034928,-0.193320,0.062098,-0.068636,-0.108006,-0.194447,-0.092617,-0.101138,-0.097446,0.133987,-0.200614,0.135822,0.971973,1.125386,0.304329,0.216794,0.584545,0.807001,0.391869,0.075760,-0.026627,0.374725,0.117192,-0.012451,0.031222,0.127080,-0.031289,0.142856,0.012308,-0.065392,-0.083754,0.142954,0.188343,-0.087254,-0.076030,0.121736,-0.398344,-0.396373,0.304161,-0.162224,-0.004522,-0.593509,-0.910279,0.651533,0.289287,-0.331420,-0.341177,0.007398,0.523355,0.256777,-0.159979,-0.152209,-0.010601,0.225640,0.002126,-0.034389,-0.186313,0.201420,0.287545,0.113501,0.031134,-0.342989,-0.092750,1.052785,0.445226,0.048265,-0.592286,-0.736338,0.373823,0.615307,0.184425,0.036591,-0.072849,0.572269,0.131887,-0.148601,0.305804,0.377906,0.245021,0.064067,-0.406554,0.174102,-0.012870,-0.590541,-0.339111,-0.281044,0.110988,0.276674,0.928753,0.073153,-0.513889,0.119724,-0.123152,0.377156,0.122476,-0.030949,0.319425,-0.109286,-0.049237,0.003578,-0.023806,0.138191,-0.292863,-0.102496,0.104197,-0.011188,0.345906,0.236595,0.105922,-0.001287,0.060306,0.072569,0.557317,0.098993,-0.391548,-0.413915,-0.146261,0.015467,-0.278594,-0.031490,-0.042918,-0.348521,-0.242888,0.151844,0.177727,-0.003529,-0.281126,-0.111004,-0.073360,-0.077641,0.086719,0.019489,0.418487,1.185922,0.229564,-0.134855,-0.292078,0.726047,0.908620,-0.046011,-0.307466,-0.220575,-0.085274,-0.099671,0.071768,-0.289163,-0.209124,-0.185070,0.640133,0.190218,0.037750,0.317051,-0.086411,0.458204,0.111837,0.245166,-0.064087,-0.198309,0.130054,-0.038519,-0.287653,0.070979,0.222621,0.363551,0.076354,-0.196835,0.406991,0.361096,0.067715,-0.041612,-0.089023,-0.074921,-0.163051,-0.095668,0.595814,0.021539,0.230115,-0.407410,0.025809,0.317748,0.294902,0.013291,0.446986,0.730013,0.236869,0.006514,0.580395,0.608936,0.367898,0.014419,-0.135471,0.722016,-0.091771,-0.683823,-0.139856,-0.072590,-0.352039,-0.598786,-0.946548,-0.516783,-0.121534,-0.274966,0.000669,-0.132608,0.004519,-0.094822,0.239430,-0.083607,-0.156462,-0.154286,-0.138943,-0.260499,-0.090832,0.495870,0.400975,0.152053,-0.378563,0.240716,-0.109098,0.317319,0.650008,-0.093567,-0.114022,-0.266648,0.533524,0.602328,-0.168478,-0.404798,0.366033,0.851944,0.499018,0.149392,0.187950,0.041879,0.285503,0.070176,-0.026178,0.460251,0.485832,0.554824,0.433113,-0.221333,0.115113,0.524970,0.234328,-0.085587,-0.350278,-0.018947,0.092081,0.348351,0.009655,-0.276976,-0.133467,-0.252910,-0.095090,0.093518,-0.229709,0.346857,0.340940,0.256472,0.014901,-0.226020,0.344961,0.883972,0.537072,-0.062603,0.186531,0.363402,1.280736,0.452112,-0.384139,0.289096,0.109364,0.474932,0.261143,-0.538519,0.277740,0.518224,0.077907,0.345617,-0.003316,0.210812,-0.320951,-0.805963,-0.661558,-0.260809,0.188629,-0.038742,-0.144524,-0.501858,-0.561809,0.261628,0.329438,0.336939,-0.246395,-0.364119,0.372455,0.305011,0.450277,-0.024486,0.220824,0.293111,-0.669712,-0.625691,-0.184803,0.211510,0.591835,0.476147,0.524478,0.131100,0.077929,0.356139,0.876951,0.960537,0.032541,-0.166175,-0.058641,0.282914,0.319778,0.033860,0.071379,-0.492022,-0.128485,0.021237,0.067812,-0.096078,-0.138419,-0.105430,0.324192,0.170229,0.328839,0.045951,0.034208,0.129460,-0.092434,0.260471,-0.114823,0.116927,0.322659,-0.247672,0.010675,-0.276323,0.144176,0.168768,0.302444,-0.404916,0.081540,0.009769,0.493006,0.577554,0.111857,0.205427,0.261844,0.677111,0.321026,-0.149158,0.154662,0.397697,0.437369,0.282374,0.172910,-0.178735,-0.129637,1.127853,0.718974,0.028282,0.031939,0.072749,1.050391,0.929352,0.397792,-0.209589,0.259944,0.354021,-0.028365,0.616784,-0.462367,-0.234391,-0.385848,0.089728,0.030605,0.296932,0.889411,0.796343,0.510374,0.294500,0.390214,0.474482,0.369770,0.047773,0.227393,-0.235314,-0.819610,-0.618664,-0.702711,-0.124999,-0.669998,-1.134826,-1.210659,-1.382373,-0.812557,-0.501176,-0.651026,-0.288752,-0.286938,-0.442591,-0.003043,-0.596987,-0.289939,0.013838,-0.114326,0.098961,-0.945934,-0.110752,-0.001633,0.362644,-0.351238,-0.736751,-0.300496,-0.067405,0.542076,-0.118846,-0.376713,-0.401845,0.347957,0.170165,0.121744,-0.346909,0.539459,0.503269,0.194224,-0.125217,-0.353797,-0.276998,0.061197,0.154752,-0.292786,-0.033841,0.133859,0.928178,0.494112,-0.375208,-0.056873,0.706426,0.381282,0.918735,-0.099061,0.154966,-0.000561,0.220562,0.679391,-0.228524,0.118315,-0.429874,0.163945,0.225560,-0.140712,0.321746,0.206583,0.407331,0.109316,0.236240,0.521107,0.395346,-0.232073,-0.147472,0.446881,0.307282,0.248229,-0.333027,-0.213799,0.842113,0.226219,-0.375837,0.112326,0.023007,0.315560,0.236504,-0.230400,0.259822,0.430508,0.497514,0.263703,0.045095,0.215652,0.259038,-0.175532,0.060630,0.121433,0.141796,-0.121130,-0.230483,0.182225,0.664542,-0.083236,-0.507383,-0.295855,0.133732,0.543981,0.018998,-0.430293,-0.268353,-0.089151,-0.089609,0.016908,0.133022,-0.054329,0.288724,0.429865,-0.301959,-0.125688,0.242485,0.722218,0.409850,0.025964,0.056075,-0.076604,0.309949,0.128602,0.061942,-0.064215,0.224294,0.051443,0.302227,0.260782,-0.301757,0.223787,0.189709,0.285880,-0.073670,0.026706,-0.018429,0.309417,0.048838,-0.155380,0.120162,0.230407,0.857989,0.480656,0.138886,0.066004,0.137025,-0.244629,0.143239,0.153821,-0.137830,0.089370,-0.310471,-0.442045,-0.168868,-0.225736,-0.125192,-0.082572,-0.445174,0.131719,-0.000573,-0.051260,-0.181665,0.125966,0.264374,0.281044,-0.430842,-0.361702,0.043521,0.254818,0.211423,-0.197734,-0.073970,-0.129131,0.113150,0.142743,-0.189989,0.478031,0.077189,-0.363453,0.059072,-0.250887,0.156918,0.008197,-0.100433,-0.129596,0.022638,0.118380,0.053212,-0.272381,0.103191,0.042536,0.098184,0.185890,-0.019360,0.049085,-0.162016,0.194778,-0.164356,-0.489903,0.170857,0.027464,-0.204288,-0.520920,-0.428008,0.031220,-0.165050,-0.304888,-0.192993,-0.003077,0.450475,0.025117,0.017491,-0.386961,0.228588,-0.047241,0.332280,0.412377,-0.061763,0.008542,-0.179472,0.622286,0.505636,0.165168,0.068726,-0.506915,0.485812,0.431745,0.166322,0.105505,-0.326659,0.244942,0.169496,-0.122391,-0.200928,-0.016892,0.005150,0.166004,-0.092714,-0.105411,0.048372,-0.165736,0.343358,-0.320007,-0.388745,-0.257881,-0.259342,0.025098,0.177961,-0.126505,-0.193119,-0.220812,-0.103170,-0.066117,-0.086327,-0.082981,0.181276,-0.006281,0.032895,-0.172567,0.052379,-0.037888,-0.172779,-0.221925,0.022742,0.092346,0.072411,-0.197384,-0.269558,-0.366428,0.144286,0.020342,-0.112995,-0.089632,-0.024549,0.185764,0.158629,-0.044034,0.015659,-0.228476,0.135220,-0.167982,0.116691,0.291793,0.007503,-0.204962,0.056469,0.107862,-0.045345,0.106673,0.222832,-0.156898,-0.314091,-0.391218,0.045037,0.012628,-0.002836,-0.296816,-0.302108,0.014580,0.103524,-0.011415,-0.554200,-0.291216,-0.144819,-0.193883,0.163000,0.127171,-0.151737,-0.119416,0.100941,-0.046259,-0.195501,-0.030044,0.105972,0.028366,-0.271608,-0.246842,0.126208,-0.020584,-0.071111,-0.219357,0.007861,-0.053565,0.071945,0.068992,-0.319603,-0.259404,-0.108645,-0.001294,0.006206,-0.279477,-0.022719,-0.088535,0.060735,-0.072693,0.091334,-0.257297,-0.470332,-0.082311,-0.160507,0.006567,-0.137917,-0.221429,-0.128209,-0.082667,-0.164561,0.057127,0.367079,-0.026050,0.087635,-0.010353,0.359998,0.483128,-0.273098,0.152967,-0.094695,-0.037627,0.043531,-0.009985,-0.179646,-0.096305,-0.067271,-0.099291,-0.258257,-0.045773,0.037037,0.048294,0.011965,-0.132407,0.094935,-0.308949,-0.246017,-0.179933,-0.230692,0.153765,-0.004503,-0.314471,-0.007978,-0.070708,0.058510,0.157556,0.176899,0.335734,0.075898,-0.132735,-0.265732,-0.273101,-0.061014,0.049408,-0.047229,-0.605177,-0.953372,-0.215725,-0.125287,0.012649,-0.184495,-0.399467,0.038187,0.049790,-0.092143,0.680518,0.903246,0.182945,-0.052283,-0.070687,0.246307,0.293765,-0.141874,-0.258215,0.094634,0.044906,-0.288458,-0.067943,-0.239661,-0.065083,-0.148436,-0.133207,0.183363,-0.076799,-0.041571,-0.135944,-0.203671,-0.065900,0.233023,0.029024,0.141145,0.045484,0.054377,0.056902,-0.167165,0.025515,0.178310,0.066121,0.033975,-0.144553,0.245235,-0.250030,-0.611216,-0.234546,0.206517,0.313352,0.106352,-0.076493,-0.361041,0.089410,0.362475,0.787039,0.516786,-0.363466,-0.246901,-0.243639,0.355214,0.768113,0.018174,-0.301220,-0.163218,-0.064060,-0.021097,-0.097077,0.067430,0.053702,0.205825,0.167337,-0.095705,-0.000169,0.360605,0.715514,0.457258,-0.115941,-0.189648,-0.240862,0.369602,0.283898,-0.021735,0.002133,-0.384728,0.030874,-0.206291,-0.311021,-0.132615,-0.011536,-0.063141,0.083417,0.092660,-0.066274,0.039951,0.132054,-0.023087,-0.035937,0.031302,0.328038,0.440637,0.208231,0.235804,-0.039041,-0.227430,0.047772,0.411180,0.125848,-0.176955,-0.187360,-0.456611,-0.121036,-0.218878,-0.161451,-0.130598,-0.074870,-0.196052,-0.322648,0.100161,-0.175382,-0.091341,0.069148,0.278146,0.345750,0.063468,-0.110541,0.012559,0.064200,-0.081073,-0.160408,-0.189214,-0.205814,-0.189433,0.111159,-0.101621,-0.466457,-0.377739,-0.059030,-0.254908,-0.198646,0.006684,0.198660,0.123879,0.034512,-0.002594,-0.009824,0.402708,0.337066,-0.187149,0.125353,0.303561,0.659152,0.259573,0.248069,-0.052059,0.499086,0.316135,-0.223870,-0.041341,-0.060859,-0.094517,-0.201027,-0.452826,-0.277176,-0.072651,-0.111969,-0.189443,-0.127787,-0.284158,0.000304,-0.075952,-0.278926,-0.162855,-0.162906,0.122671,-0.361274,-0.375898,-0.037403,-0.181159,0.057944,-0.078659,-0.138603,-0.010872,-0.348038,-0.166934,0.160605,0.280032,0.184177,-0.231054,-0.009099,0.134146,0.083143,-0.156794,0.147696,0.043345,-0.143762,-0.176631,-0.214690,0.046704,-0.108238,0.314966,0.175405,-0.019209,0.139085,-0.272920,-0.022529,0.021802,0.172885,0.049089,0.214860,0.102523,-0.280792,-0.253867,0.130780,0.256903,0.210039,-0.042670,-0.274242,0.003578,-0.029994,0.072152,0.301394,-0.191811,0.094651,0.054692,0.625244,0.259503,-0.095623,-0.148599,0.242109,0.574007,0.323340,-0.053651,-0.502928,0.223742,0.514826,0.116198,-0.196583,-0.173700,0.149706,0.328211,0.084800,-0.171049,0.032060,-0.021718,0.241687,-0.006843,-0.309018,-0.026139,0.037950,-0.203198,0.500555,-0.436344,-0.221812,0.036698,-0.165983,0.368248,0.111274,-0.802452,-0.022055,-0.096345,0.457022,0.309040,-0.518868,-0.135863,-0.137227,0.520035,0.277777,-0.169837,-0.031917,0.063187,-0.031456,-0.531686,-0.146332,0.116471,0.324213,0.311817,0.006177,-0.105763,-0.598051,-0.568183,-0.246538,0.101205,0.549295,-0.937061,-0.970763,-0.085005,-0.455886,0.149711,-0.163290,-0.504730,-0.125558,0.027999,-0.308863,0.036332,-0.186450,-0.076319,0.189507,-0.089977,0.244687,0.743074,0.340509,0.242225,-0.020648,0.391603,0.919855,0.005992,-0.072061,0.028257,-0.320649,0.150594,0.097060,-0.116330,0.077622,-0.346813,-0.070027,0.095467,0.098057,-0.124092,0.075096,0.000259,-0.368663,-0.166638,0.124577,-0.008434,-0.129131,-0.542438,-0.252899,-0.006192,-0.143428,-0.633991,-0.127511,-0.083214,0.202423,-0.529640,-0.568283,-0.363695,-0.220696,0.064463,0.037756,-0.134811,-0.556261,-0.299538,0.216209,0.234397,0.001547,0.501858,0.117770,-0.220049,-0.100063,-0.063422,0.224516,0.278648,0.037861,0.077015,-0.126738,-0.189128,0.354100,0.015767,0.084299,-0.609456,-0.898452,-0.154064,-0.225745,-0.006484,-0.283266,0.065714,0.022402,-0.129308,0.251051,-0.128257,-0.087514,-0.160568,-0.216507,0.370114,0.023620,-0.249544,-0.173471,-0.137559,0.009090,0.053914,-0.144337,-0.288896,-0.195049,0.038711,0.105851,-0.186048,0.081362,-0.359798,0.452167,-0.029758,-0.160772,-0.080311,0.014341,0.051143,0.047122,0.009305,-0.036137,0.070144,0.407931,0.777473,-0.094471,-0.078478,-0.009102,0.450213,0.660434,-0.122397,-0.007417,-0.142253,-0.449576,-0.846119,-0.014913,0.056425,0.180770,-0.059854,-0.364288,0.305623,0.099993,0.284483,0.200225,-0.133499,-0.076420,0.307336,0.067112,0.112957,-0.133667,-0.374217,0.214785,0.426086,0.114506,-0.145988,0.287096,0.015158,0.229092,0.160164,0.367919,-0.248359,0.060329,0.281764,0.148512,0.202056,-0.463947,0.378898,0.087921,0.023355,-0.211996,0.065146,0.251668,-0.204062,-0.237933,-0.731648,-0.817124,-0.115641,-0.000197,-0.005616,-0.323695,-0.602808,0.012114,0.042554,-0.128810,-0.177868,0.435313,0.051222,0.195784,-0.139952,-0.245043,0.148698,-0.124013,0.236510,-0.279801,-0.547329,-0.044564,0.021198,-0.056613,-0.165682,-0.466315,-0.353260,0.306968,0.016281,-0.269270,0.315522,0.555794,-0.001319,-0.349137,0.508040,0.683472,1.104761,0.160827,-0.184275,0.026752,0.802235,0.845968,0.278572,-0.125907,-0.031285,-0.098010,-0.389924,-0.550219,-0.175376,-0.059902,-0.263629,-0.090500,-0.268025,-0.003980,-0.082546,-0.847460,-0.260602,0.124066,0.326757,0.293383,-0.882834,-0.207292,0.116874,0.260325,0.268251,-0.173405,-0.129938,-0.309209,0.046523,0.368830,0.184948,-0.028402,0.240314,0.241738,-0.018963,-0.120852,0.247357,0.253822,-0.006339,0.338930,0.022062,-0.226005,0.373198,0.504729,-0.318237,-0.448374,0.340966,0.475049,0.371578,-0.124856,-0.104291,0.086151,0.303633,0.121855,-0.338703,0.271612,0.042984,-0.071125,-0.041321,-0.361791,0.287272,-0.182002,-0.702367,-0.263384,-0.155354,0.344647,0.354803,0.060218,